{"learner":{"attributes":{"best_iteration":"99","best_ntree_limit":"100","scikit_learn":"{\"use_label_encoder\": false, \"n_estimators\": 100, \"objective\": \"multi:softprob\", \"max_depth\": 7, \"max_leaves\": null, \"max_bin\": null, \"grow_policy\": null, \"learning_rate\": 0.1, \"verbosity\": null, \"booster\": null, \"tree_method\": null, \"gamma\": null, \"min_child_weight\": null, \"max_delta_step\": null, \"subsample\": 0.8, \"sampling_method\": null, \"colsample_bytree\": null, \"colsample_bylevel\": null, \"colsample_bynode\": null, \"reg_alpha\": null, \"reg_lambda\": null, \"scale_pos_weight\": null, \"base_score\": null, \"missing\": NaN, \"num_parallel_tree\": null, \"random_state\": 42, \"n_jobs\": null, \"monotone_constraints\": null, \"interaction_constraints\": null, \"importance_type\": null, \"gpu_id\": null, \"validate_parameters\": null, \"predictor\": null, \"enable_categorical\": false, \"max_cat_to_onehot\": null, \"eval_metric\": null, \"early_stopping_rounds\": null, \"callbacks\": null, \"classes_\": [0, 1, 2, 3, 4, 5], \"n_classes_\": 6, \"_estimator_type\": \"classifier\"}"},"feature_names":["Amount","Mode_encoded","Income/Expense_encoded","Currency_encoded"],"feature_types":["float","int","int","int"],"gradient_booster":{"model":{"gbtree_model_param":{"num_parallel_tree":"1","num_trees":"600","size_leaf_vector":"0"},"tree_info":[0,1,2,3,4,5,0,1,2,3,4,5,0,1,2,3,4,5,0,1,2,3,4,5,0,1,2,3,4,5,0,1,2,3,4,5,0,1,2,3,4,5,0,1,2,3,4,5,0,1,2,3,4,5,0,1,2,3,4,5,0,1,2,3,4,5,0,1,2,3,4,5,0,1,2,3,4,5,0,1,2,3,4,5,0,1,2,3,4,5,0,1,2,3,4,5,0,1,2,3,4,5,0,1,2,3,4,5,0,1,2,3,4,5,0,1,2,3,4,5,0,1,2,3,4,5,0,1,2,3,4,5,0,1,2,3,4,5,0,1,2,3,4,5,0,1,2,3,4,5,0,1,2,3,4,5,0,1,2,3,4,5,0,1,2,3,4,5,0,1,2,3,4,5,0,1,2,3,4,5,0,1,2,3,4,5,0,1,2,3,4,5,0,1,2,3,4,5,0,1,2,3,4,5,0,1,2,3,4,5,0,1,2,3,4,5,0,1,2,3,4,5,0,1,2,3,4,5,0,1,2,3,4,5,0,1,2,3,4,5,0,1,2,3,4,5,0,1,2,3,4,5,0,1,2,3,4,5,0,1,2,3,4,5,0,1,2,3,4,5,0,1,2,3,4,5,0,1,2,3,4,5,0,1,2,3,4,5,0,1,2,3,4,5,0,1,2,3,4,5,0,1,2,3,4,5,0,1,2,3,4,5,0,1,2,3,4,5,0,1,2,3,4,5,0,1,2,3,4,5,0,1,2,3,4,5,0,1,2,3,4,5,0,1,2,3,4,5,0,1,2,3,4,5,0,1,2,3,4,5,0,1,2,3,4,5,0,1,2,3,4,5,0,1,2,3,4,5,0,1,2,3,4,5,0,1,2,3,4,5,0,1,2,3,4,5,0,1,2,3,4,5,0,1,2,3,4,5,0,1,2,3,4,5,0,1,2,3,4,5,0,1,2,3,4,5,0,1,2,3,4,5,0,1,2,3,4,5,0,1,2,3,4,5,0,1,2,3,4,5,0,1,2,3,4,5,0,1,2,3,4,5,0,1,2,3,4,5,0,1,2,3,4,5,0,1,2,3,4,5,0,1,2,3,4,5,0,1,2,3,4,5,0,1,2,3,4,5,0,1,2,3,4,5,0,1,2,3,4,5,0,1,2,3,4,5,0,1,2,3,4,5,0,1,2,3,4,5,0,1,2,3,4,5,0,1,2,3,4,5,0,1,2,3,4,5,0,1,2,3,4,5,0,1,2,3,4,5,0,1,2,3,4,5,0,1,2,3,4,5,0,1,2,3,4,5,0,1,2,3,4,5,0,1,2,3,4,5,0,1,2,3,4,5,0,1,2,3,4,5],"trees":[{"base_weights":[-4.7918436E-1,-5.586495E-1,-3.5132217E-1,-6.250002E-2,-3.9987367E-1,-2.6612905E-1,8.275862E-1,-5.4385966E-1,-3.2536766E-1,-7.5949386E-2,-5E-1,-2.7272728E-1,-5.4404145E-1,-1.8584073E-1,1.4285712E-1,-3.057111E-1,6.315789E-1,4.1095868E-2,-4.1379312E-1,6.976742E-2,-3.1797236E-1,-3.277311E-1,-5.660379E-2],"categories":[],"categories_nodes":[],"categories_segments":[],"categories_sizes":[],"default_left":[1,0,1,1,1,1,0,0,1,1,0,1,0,1,0,1,0,0,0,0,1,0,0],"id":0,"left_children":[1,-1,3,5,7,9,-1,-1,11,13,-1,15,-1,17,-1,19,-1,-1,-1,-1,21,-1,-1],"loss_changes":[2.4612923E0,0E0,1.4185715E0,3.1202028E0,7.664976E-1,5.748264E-1,0E0,0E0,5.4740524E-1,2.3760979E-1,0E0,1.7059958E0,0E0,3.4175923E-1,0E0,2.5058556E-1,0E0,0E0,0E0,0E0,1.04445934E-1,0E0,0E0],"parents":[2147483647,0,0,2,2,3,3,4,4,5,5,8,8,9,9,11,11,13,13,15,15,20,20],"right_children":[2,-1,4,6,8,10,-1,-1,12,14,-1,16,-1,18,-1,20,-1,-1,-1,-1,22,-1,-1],"split_conditions":[-1.946024E-1,-5.586495E-2,-1.9194528E-1,-1.9273257E-1,-1.8220252E-1,5E-1,8.275862E-2,-5.4385968E-2,3.2486406E-1,-1.9356906E-1,-5E-2,9.630276E-2,-5.4404147E-2,-1.9401193E-1,1.42857125E-2,-1.8180886E-1,6.315789E-2,4.109587E-3,-4.1379314E-2,6.9767423E-3,3.4992233E-2,-3.277311E-2,-5.660379E-3],"split_indices":[0,0,0,0,0,1,0,0,0,0,0,0,0,0,0,0,0,0,0,0,0,0,0],"split_type":[0,0,0,0,0,0,0,0,0,0,0,0,0,0,0,0,0,0,0,0,0,0,0],"sum_hessian":[2.6055557E2,1.5861111E2,1.0194445E2,1.5000001E1,8.694445E1,1.2777779E1,2.2222223E0,2.7500002E1,5.9444447E1,7.777778E0,5E0,4.9722225E1,9.722222E0,5.277778E0,2.5E0,4.8611115E1,1.1111112E0,3.0555558E0,2.2222223E0,1.388889E0,4.7222225E1,4.527778E1,1.9444445E0],"tree_param":{"num_deleted":"0","num_feature":"4","num_nodes":"23","size_leaf_vector":"0"}},{"base_weights":[1.5437615E0,1.7599341E0,-4.0133804E-2,1.4187034E0,2.4033148E0,2.7272722E-1,-4.86166E-1,1.7043188E0,1.2724457E0,7.142857E-1,2.448325E0,3.703701E-2,6.521739E-1,-1.0344829E-1,-5.492958E-1,1.5020462E0,2.329787E0,5.675675E-1,1.4029573E0,1.3255813E0,-3.1578946E-1,2.6392784E0,1.8936169E0,9.417038E-2,-3.1578946E-1,1.2739725E0,-3.6144596E-2,-3.1578946E-1,1.5789472E-1,2.3918917E0,1.2880106E0,7.8082186E-1,2.021739E0,-9.3750015E-2,2.9203537E-1,3.7499997E-1,-3.962264E-1,8.383371E-1,1.4471242E0,1.1249999E0,6.976742E-2,2.0946743E0,7.4999994E-1,1.4285712E-1,-2.5301206E-1,6.315789E-1,9.677417E-2,1.108108E0,-5.084748E-2,2.033557E0,1.1954886E0,-3.75E-1,-5.660379E-2,-3.488372E-1,3.5294113E-1],"categories":[],"categories_nodes":[],"categories_segments":[],"categories_sizes":[],"default_left":[1,1,1,1,1,1,1,1,1,1,1,1,1,1,0,0,0,0,1,0,0,0,1,1,0,0,1,0,0,0,1,1,1,1,1,0,0,1,1,0,0,0,0,0,1,0,1,0,0,0,0,0,0,0,0],"id":1,"left_children":[1,3,5,7,9,11,13,15,17,19,21,23,25,27,-1,-1,-1,-1,29,-1,-1,-1,31,33,-1,-1,35,-1,-1,-1,37,39,41,43,45,-1,-1,47,49,-1,-1,-1,-1,-1,51,-1,53,-1,-1,-1,-1,-1,-1,-1,-1],"loss_changes":[9.200366E1,4.8463135E1,4.7686224E0,4.3828125E0,4.366852E0,1.7793878E0,2.8277087E-1,2.8473969E0,9.108505E0,2.6224866E0,3.2583618E0,3.018732E-1,3.3273458E0,2.286751E-1,0E0,0E0,0E0,0E0,7.1688995E0,0E0,0E0,0E0,1.7718658E0,4.8803273E-1,0E0,0E0,8.3123994E-1,0E0,0E0,0E0,4.7214203E0,9.140253E-1,3.2531738E-1,3.0410925E-1,3.5509408E-1,0E0,0E0,5.8266983E0,6.4065475E0,0E0,0E0,0E0,0E0,0E0,8.925322E-2,0E0,7.128988E-1,0E0,0E0,0E0,0E0,0E0,0E0,0E0,0E0],"parents":[2147483647,0,0,1,1,2,2,3,3,4,4,5,5,6,6,7,7,8,8,9,9,10,10,11,11,12,12,13,13,18,18,22,22,23,23,26,26,30,30,31,31,32,32,33,33,34,34,37,37,38,38,44,44,46,46],"right_children":[2,4,6,8,10,12,14,16,18,20,22,24,26,28,-1,-1,-1,-1,30,-1,-1,-1,32,34,-1,-1,36,-1,-1,-1,38,40,42,44,46,-1,-1,48,50,-1,-1,-1,-1,-1,52,-1,54,-1,-1,-1,-1,-1,-1,-1,-1],"split_conditions":[-1.5121019E-1,1.5E0,-2.5334172E-2,-1.9873568E-1,-2.003595E-1,-1.0303026E-1,4.5325466E-2,-1.9922775E-1,-1.9863728E-1,-2.0056614E-1,-1.9396272E-1,-1.06228635E-1,-7.508132E-2,-1.6661461E-3,-5.492958E-2,1.5020463E-1,2.329787E-1,5.6756753E-2,-1.980468E-1,1.3255814E-1,-3.1578947E-2,2.6392785E-1,-1.9194528E-1,-1.3491566E-1,-3.1578947E-2,1.2739725E-1,1.5E0,-3.1578947E-2,1.5789472E-2,2.3918918E-1,-1.9661984E-1,-1.9273257E-1,-1.5981385E-1,-1.4372352E-1,-1.2664908E-1,3.7499998E-2,-3.9622642E-2,-1.9681665E-1,-1.9415954E-1,1.1249999E-1,6.9767423E-3,2.0946744E-1,7.4999996E-2,1.42857125E-2,-1.3816324E-1,6.315789E-2,-1.2074437E-1,1.1081081E-1,-5.084748E-3,2.033557E-1,1.1954886E-1,-3.75E-2,-5.660379E-3,-3.488372E-2,3.529411E-2],"split_indices":[0,1,0,0,0,0,0,0,0,0,0,0,0,0,0,0,0,0,0,0,0,0,0,0,0,0,1,0,0,0,0,0,0,0,0,0,0,0,0,0,0,0,0,0,0,0,0,0,0,0,0,0,0,0,0],"split_type":[0,0,0,0,0,0,0,0,0,0,0,0,0,0,0,0,0,0,0,0,0,0,0,0,0,0,0,0,0,0,0,0,0,0,0,0,0,0,0,0,0,0,0,0,0,0,0,0,0,0,0,0,0,0,0],"sum_hessian":[2.675E2,2.3527779E2,3.2222225E1,1.5583334E2,7.944445E1,1.9166668E1,1.3055556E1,4.9166668E1,1.0666667E2,2.5E0,7.694445E1,1.2500001E1,6.666667E0,2.2222223E0,1.0833334E1,3.9722225E1,9.444445E0,1.75E1,8.916667E1,1.388889E0,1.1111112E0,5.4444447E1,2.2500002E1,1.1388889E1,1.1111112E0,3.0555558E0,3.6111112E0,1.1111112E0,1.1111112E0,7.2222223E0,8.194445E1,3.0555558E0,1.9444445E1,6.1111116E0,5.277778E0,1.6666667E0,1.9444445E0,2.3055557E1,5.8888893E1,1.6666667E0,1.388889E0,1.7777779E1,1.6666667E0,2.5E0,3.6111112E0,1.1111112E0,4.166667E0,1.75E1,5.555556E0,1.5555556E1,4.3333336E1,1.6666667E0,1.9444445E0,1.388889E0,2.777778E0],"tree_param":{"num_deleted":"0","num_feature":"4","num_nodes":"55","size_leaf_vector":"0"}},{"base_weights":[-1.5413536E-1,-3.8568714E-1,2.912621E-1,-4.7524753E-1,-2.606775E-1,3.937753E-1,-5.425532E-1,8.823527E-2,-4.9208143E-1,1.3018867E0,-3.197279E-1,1.8512253E-1,1.1597443E0,-4.3159753E-1,-5.834609E-1,-1.491713E-1,-4.2857143E-1,2.270703E-1,-4.6153846E-1,1.5882351E0,6.7415726E-1,-4.864865E-1,-2.1673004E-1,-4.5731708E-1,2.961373E-1,-3.368146E-1,-4.9191687E-1,1.6239312E-1,9.545454E-1,1.578947E-1,1.5714284E0,-3.3707887E-2,-4.9514562E-1,1.4754096E-1,6.17647E-1,-2.3076925E-1,-5.15625E-1,-5.64935E-1,-2.7272728E-1,2.8506783E-1,-4.411767E-2,7.142857E-1,-2.7272728E-1,4.6874974E-2,-1.764706E-1,2.3076919E-1,-1.0344829E-1,-1.4685316E-1,-2.837838E-1,6.976742E-2,-3.559322E-1,6.075949E-1,1.7782024E-1,-2.5925928E-1,2.459016E-1,-4.4117647E-1,1.5789472E-1],"categories":[],"categories_nodes":[],"categories_segments":[],"categories_sizes":[],"default_left":[1,1,1,1,1,1,0,0,1,0,1,1,1,1,0,1,1,1,0,0,1,0,1,0,1,1,1,1,0,1,0,1,0,1,0,1,0,0,1,1,1,0,1,0,0,0,0,0,0,0,0,0,0,0,0,0,0],"id":2,"left_children":[1,3,5,7,9,11,-1,-1,13,-1,15,17,19,21,-1,23,25,27,-1,-1,29,-1,31,-1,33,35,37,39,-1,41,-1,43,-1,45,-1,47,-1,-1,49,51,53,-1,55,-1,-1,-1,-1,-1,-1,-1,-1,-1,-1,-1,-1,-1,-1],"loss_changes":[2.7545605E1,1.840374E0,8.039547E0,1.0014668E0,7.377514E0,1.2908431E1,0E0,0E0,2.9105186E-1,0E0,1.3005228E0,1.8875821E0,2.5473785E0,6.369209E-1,0E0,4.274898E0,9.199715E-2,2.7804503E0,0E0,0E0,4.332686E0,0E0,7.2783667E-1,0E0,5.272949E-1,2.8447914E-1,2.3093176E-1,1.4945953E0,0E0,1.96514E0,0E0,1.22036085E-1,0E0,2.362482E-1,0E0,2.579856E-2,0E0,0E0,2.5122732E-1,1.1660316E0,1.4780438E0,0E0,4.2428932E-1,0E0,0E0,0E0,0E0,0E0,0E0,0E0,0E0,0E0,0E0,0E0,0E0,0E0,0E0],"parents":[2147483647,0,0,1,1,2,2,3,3,4,4,5,5,8,8,10,10,11,11,12,12,13,13,15,15,16,16,17,17,20,20,22,22,24,24,25,25,26,26,27,27,29,29,31,31,33,33,35,35,38,38,39,39,40,40,42,42],"right_children":[2,4,6,8,10,12,-1,-1,14,-1,16,18,20,22,-1,24,26,28,-1,-1,30,-1,32,-1,34,36,38,40,-1,42,-1,44,-1,46,-1,48,-1,-1,50,52,54,-1,56,-1,-1,-1,-1,-1,-1,-1,-1,-1,-1,-1,-1,-1,-1],"split_conditions":[-1.9233893E-1,-1.979484E-1,2.9721403E0,-2.0070392E-1,-1.9784999E-1,-1.2502527E-1,-5.4255318E-2,8.823527E-3,-1.9903092E-1,1.3018867E-1,-1.9617698E-1,-1.3955677E-1,1.5E0,-1.9937536E-1,-5.8346093E-2,-1.9716111E-1,1.5E0,-1.5121019E-1,-4.6153847E-2,1.5882352E-1,5.413332E-2,-4.864865E-2,1E0,-4.573171E-2,1E0,-1.9415954E-1,-1.9479921E-1,1.5E0,9.545454E-2,-8.2875535E-2,1.5714285E-1,-1.9912934E-1,-4.9514562E-2,-1.9661984E-1,6.17647E-2,-1.9499604E-1,-5.15625E-2,-5.6493502E-2,-1.946516E-1,-1.8992785E-1,-1.8040158E-1,7.142857E-2,-2.8876996E-2,4.6874974E-3,-1.764706E-2,2.307692E-2,-1.03448285E-2,-1.4685317E-2,-2.837838E-2,6.9767423E-3,-3.5593223E-2,6.0759492E-2,1.7782023E-2,-2.5925929E-2,2.459016E-2,-4.411765E-2,1.5789472E-2],"split_indices":[0,0,0,0,0,0,0,0,0,0,0,0,1,0,0,0,1,0,0,0,0,0,1,0,1,0,0,1,0,0,0,0,0,0,0,0,0,0,0,0,0,0,0,0,0,0,0,0,0,0,0,0,0,0,0,0,0],"split_type":[0,0,0,0,0,0,0,0,0,0,0,0,0,0,0,0,0,0,0,0,0,0,0,0,0,0,0,0,0,0,0,0,0,0,0,0,0,0,0,0,0,0,0,0,0,0,0,0,0,0,0,0,0,0,0,0,0],"sum_hessian":[2.65E2,1.7444446E2,9.055556E1,1.0000001E2,7.444445E1,8.1111115E1,9.444445E0,2.777778E0,9.722223E1,1.9444445E0,7.25E1,6.472223E1,1.638889E1,6.1944447E1,3.527778E1,2.9166668E1,4.3333336E1,6.1388893E1,3.3333335E0,7.5000005E0,8.888889E0,4.8333336E1,1.3611112E1,1.7222223E1,1.1944445E1,2.0277779E1,2.3055557E1,5.7500004E1,3.888889E0,6.3888893E0,2.5E0,8.888889E0,4.7222223E0,9.166667E0,2.777778E0,1.4166667E1,6.1111116E0,1.6111113E1,6.9444447E0,3.5833336E1,2.1666668E1,2.5E0,3.888889E0,6.1111116E0,2.777778E0,6.9444447E0,2.2222223E0,6.9444447E0,7.2222223E0,1.388889E0,5.555556E0,7.777778E0,2.8055557E1,1.2500001E1,9.166667E0,2.777778E0,1.1111112E0],"tree_param":{"num_deleted":"0","num_feature":"4","num_nodes":"57","size_leaf_vector":"0"}},{"base_weights":[-4.8626885E-1,-5.976987E-1,2.6785712E0],"categories":[],"categories_nodes":[],"categories_segments":[],"categories_sizes":[],"default_left":[1,0,0],"id":3,"left_children":[1,-1,-1],"loss_changes":[9.648547E1,0E0,0E0],"parents":[2147483647,0,0],"right_children":[2,-1,-1],"split_conditions":[5E-1,-5.976987E-2,2.6785713E-1],"split_indices":[2,0,0],"split_type":[0,0,0],"sum_hessian":[2.6805557E2,2.5972223E2,8.333334E0],"tree_param":{"num_deleted":"0","num_feature":"4","num_nodes":"3","size_leaf_vector":"0"}},{"base_weights":[-5.82616E-1,-5.897772E-1,-3.6945814E-1,4.8837206E-1,-5.3932583E-1],"categories":[],"categories_nodes":[],"categories_segments":[],"categories_sizes":[],"default_left":[1,0,1,0,0],"id":4,"left_children":[1,-1,3,-1,-1],"loss_changes":[1.860199E-1,0E0,1.9067628E0,0E0,0E0],"parents":[2147483647,0,0,2,2],"right_children":[2,-1,4,-1,-1],"split_conditions":[1.4246154E0,-5.897772E-2,4.269158E0,4.8837207E-2,-5.3932585E-2],"split_indices":[0,0,0,0,0],"split_type":[0,0,0,0,0],"sum_hessian":[2.636111E2,2.5333334E2,1.0277779E1,1.388889E0,8.888889E0],"tree_param":{"num_deleted":"0","num_feature":"4","num_nodes":"5","size_leaf_vector":"0"}},{"base_weights":[1.755915E-1,4.7613758E-1,-2.0675106E-1,6.7214966E-1,1.06471784E-1,-3.878327E-1,2.9842928E-1,4.062838E-1,9.4405586E-1,-4.2857143E-1,1.4129241E-1,7.142857E-1,-4.2857143E-1,6.46489E-1,-5.3932583E-1,5.853658E-1,-2.8078818E-1,1.6625385E0,4.9367082E-1,4.459459E-1,8.045974E-2,-3.9109698E-1,-5.631399E-1,1.5544016E-2,1.1092436E0,-4.2857143E-1,6.623376E-1,-4.4680852E-1,9.321148E-1,-3.9130434E-1,1.7647055E-1,-4.278648E-1,4.285714E-1,1.0714283E-1,-3.488372E-1,1.3928571E0,3.4090906E-1,4.9999994E-1,7.4468076E-1,-1.6763806E-8,-5.3164554E-1,1.4145076E0,4.038461E-1,9.6226406E-1,1.05095506E-1,-5.604395E-1,-3.8204592E-1,6.976742E-2,6.315789E-1,-1.1278197E-1,6.2264144E-1,-1.6763806E-8,1.695652E0,-3.75E-1,8.275862E-1,5.3225803E-1,2.0689653E-1,-4.8979592E-1,1.0312499E0,-4.4117647E-1,1.6608992E-1,2.876712E-1,-4.2857143E-1,2.0689653E-1,-2.9032257E-1,1.1052631E0,1.5789472E-1],"categories":[],"categories_nodes":[],"categories_segments":[],"categories_sizes":[],"default_left":[1,1,1,1,1,1,1,1,1,0,1,0,1,1,0,1,0,0,1,0,1,1,0,1,1,0,1,1,1,0,1,1,1,1,0,1,1,1,0,0,0,0,1,0,1,0,1,0,0,1,0,0,0,0,1,0,0,0,0,0,0,0,0,0,0,0,0],"id":5,"left_children":[1,3,5,7,9,11,13,15,17,-1,19,-1,21,23,-1,25,-1,-1,27,-1,29,31,-1,33,35,-1,37,39,41,-1,43,45,47,49,-1,51,53,55,-1,-1,-1,-1,57,-1,59,-1,61,-1,-1,63,-1,-1,-1,-1,65,-1,-1,-1,-1,-1,-1,-1,-1,-1,-1,-1,-1],"loss_changes":[3.0856438E1,1.0809357E1,1.095599E1,6.696907E0,1.0521126E0,4.242259E0,9.630915E0,6.4736967E0,1.4603893E1,0E0,9.0414834E-1,0E0,2.0924282E-1,6.6819086E0,0E0,3.4836864E0,0E0,0E0,1.3084707E1,0E0,2.0393624E0,2.2896414E0,0E0,3.9524984E-1,2.4064178E0,0E0,1.4230347E-1,3.959062E-1,4.851038E0,0E0,1.9647065E0,1.952343E-1,2.1087605E-1,1.1283514E0,0E0,3.9363346E0,2.0137146E0,4.1157007E-2,0E0,0E0,0E0,0E0,6.984007E0,0E0,1.2357569E0,0E0,1.7816343E0,0E0,0E0,4.7942993E-1,0E0,0E0,0E0,0E0,4.2468238E-1,0E0,0E0,0E0,0E0,0E0,0E0,0E0,0E0,0E0,0E0,0E0,0E0],"parents":[2147483647,0,0,1,1,2,2,3,3,4,4,5,5,6,6,7,7,8,8,10,10,12,12,13,13,15,15,18,18,20,20,21,21,23,23,24,24,26,26,27,27,28,28,30,30,31,31,32,32,33,33,35,35,36,36,37,37,42,42,44,44,46,46,49,49,54,54],"right_children":[2,4,6,8,10,12,14,16,18,-1,20,-1,22,24,-1,26,-1,-1,28,-1,30,32,-1,34,36,-1,38,40,42,-1,44,46,48,50,-1,52,54,56,-1,-1,-1,-1,58,-1,60,-1,62,-1,-1,64,-1,-1,-1,-1,66,-1,-1,-1,-1,-1,-1,-1,-1,-1,-1,-1,-1],"split_conditions":[5E-1,-1.9661984E-1,-1.5849513E-1,-1.9873568E-1,-1.9607857E-1,-2.003595E-1,5E-1,-1.996214E-1,-1.9863728E-1,-4.2857144E-2,-1.9499603E-1,7.142857E-2,-1.8308821E-1,1.5E0,-5.3932585E-2,-2.0070392E-1,-2.8078819E-2,1.6625385E-1,-1.9780079E-1,4.459459E-2,-1.9386432E-1,-1.8648341E-1,-5.631399E-2,-1.0720028E-2,3.3958912E-2,-4.2857144E-2,-2.0021187E-1,-1.9824363E-1,-1.9755474E-1,-3.9130434E-2,-1.9342145E-1,-1.9878489E-1,-1.8510565E-1,-8.377108E-2,-3.488372E-2,-1.4264098E-1,1.0343761E-1,-2.0055631E-1,7.4468076E-2,-1.6763807E-9,-5.3164553E-2,1.4145076E-1,-1.9681665E-1,9.622641E-2,-1.9253576E-1,-5.6043953E-2,-1.9858807E-1,6.9767423E-3,6.315789E-2,-1.4869332E-1,6.2264144E-2,-1.6763807E-9,1.695652E-1,-3.75E-2,1.2253317E0,5.3225804E-2,2.0689653E-2,-4.897959E-2,1.0312499E-1,-4.411765E-2,1.6608993E-2,2.8767122E-2,-4.2857144E-2,2.0689653E-2,-2.9032258E-2,1.10526316E-1,1.5789472E-2],"split_indices":[1,0,0,0,0,0,2,0,0,0,0,0,0,1,0,0,0,0,0,0,0,0,0,0,0,0,0,0,0,0,0,0,0,0,0,0,0,0,0,0,0,0,0,0,0,0,0,0,0,0,0,0,0,0,0,0,0,0,0,0,0,0,0,0,0,0,0],"split_type":[0,0,0,0,0,0,0,0,0,0,0,0,0,0,0,0,0,0,0,0,0,0,0,0,0,0,0,0,0,0,0,0,0,0,0,0,0,0,0,0,0,0,0,0,0,0,0,0,0,0,0,0,0,0,0,0,0,0,0,0,0,0,0,0,0,0,0],"sum_hessian":[2.666667E2,1.4916667E2,1.1750001E2,9.694445E1,5.2222225E1,8.666667E1,3.0833334E1,5.027778E1,4.6666668E1,2.5E0,4.9722225E1,2.5E0,8.416667E1,2.1944445E1,8.888889E0,4E1,1.0277779E1,1.6944445E1,2.9722223E1,7.2222223E0,4.2500004E1,6.888889E1,1.5277779E1,9.722222E0,1.2222223E1,2.5E0,3.75E1,9.444445E0,2.0277779E1,6.666667E0,3.5833336E1,6.638889E1,2.5E0,8.333334E0,1.388889E0,8.333334E0,3.888889E0,1.5000001E1,2.2500002E1,1.6666667E0,7.777778E0,9.722222E0,1.0555556E1,1.9444445E0,3.388889E1,1.4166667E1,5.2222225E1,1.388889E0,1.1111112E0,6.3888893E0,1.9444445E0,1.6666667E0,6.666667E0,1.6666667E0,2.2222223E0,1.2777779E1,2.2222223E0,4.4444447E0,6.1111116E0,2.777778E0,3.1111113E1,3.0555558E0,4.9166668E1,2.2222223E0,4.166667E0,1.1111112E0,1.1111112E0],"tree_param":{"num_deleted":"0","num_feature":"4","num_nodes":"67","size_leaf_vector":"0"}},{"base_weights":[-4.8066854E-1,-5.661531E-1,-3.8906017E-1,-3.7227422E-1,-5.383331E-1,-4.125867E-1,-2.3393783E-1,-3.2104418E-1,-4.8217198E-1,7.793641E-2,-2.913884E-1,-4.242957E-1,4.4497225E-2,-5.378601E-1,-3.882742E-1,-9.296162E-2,2.2457469E-1,-3.3885166E-1,3.1334992E-2,-2.3126459E-1,-4.8629424E-1,-8.630417E-2,2.532153E-1,6.9574654E-2,-4.2234027E-1,-3.1104273E-1,1.7035845E-1,-4.8453778E-1,-2.748723E-1,1.5411405E-1,-6.633137E-2,-4.1320318E-1,6.6758424E-1,-2.8280535E-1,-5.575796E-1,-1.1768362E-1,1.1052651E-2,6.2135845E-1,-8.471417E-2,1.06914E-2,-3.8776302E-1],"categories":[],"categories_nodes":[],"categories_segments":[],"categories_sizes":[],"default_left":[1,0,1,1,0,1,1,1,1,1,1,1,1,0,1,1,0,1,1,1,1,1,1,0,0,0,0,0,1,0,0,0,0,0,0,0,0,0,0,0,0],"id":6,"left_children":[1,-1,3,5,-1,7,9,11,13,15,17,19,21,-1,23,25,-1,27,29,31,33,35,37,-1,-1,-1,-1,-1,39,-1,-1,-1,-1,-1,-1,-1,-1,-1,-1,-1,-1],"loss_changes":[1.8213387E0,0E0,1.2293053E-1,5.684414E-1,0E0,4.2502117E-1,5.46186E-1,1.61548E0,5.115509E-2,1.545407E-1,3.917544E-1,2.8342867E-1,3.0092412E-1,0E0,3.741734E-1,2.350465E-1,0E0,6.9793224E-2,5.94549E-2,1.9028103E0,1.9235802E-1,2.2776835E-2,5.741892E-1,0E0,0E0,0E0,0E0,0E0,5.66452E-1,0E0,0E0,0E0,0E0,0E0,0E0,0E0,0E0,0E0,0E0,0E0,0E0],"parents":[2147483647,0,0,2,2,3,3,5,5,6,6,7,7,8,8,9,9,10,10,11,11,12,12,14,14,15,15,17,17,18,18,19,19,20,20,21,21,22,22,28,28],"right_children":[2,-1,4,6,-1,8,10,12,14,16,18,20,22,-1,24,26,-1,28,30,32,34,36,38,-1,-1,-1,-1,-1,40,-1,-1,-1,-1,-1,-1,-1,-1,-1,-1,-1,-1],"split_conditions":[-1.9588175E-1,-5.661531E-2,4.724817E-1,-1.6311064E-1,-5.3833313E-2,-1.9194528E-1,-1.5725514E-1,-1.9415954E-1,-1.8220252E-1,1.5E0,3.5582706E-2,-1.9538969E-1,-1.9297859E-1,-5.378601E-2,-1.8171045E-1,-1.5879035E-1,2.245747E-2,-1.4800444E-1,5.413332E-2,-1.9563572E-1,1.5E0,1.5E0,-1.9253576E-1,6.9574653E-3,-4.223403E-2,-3.1104272E-2,1.7035846E-2,-4.8453778E-2,-1.2502527E-1,1.5411406E-2,-6.6331374E-3,-4.132032E-2,6.6758424E-2,-2.8280536E-2,-5.575796E-2,-1.17683625E-2,1.1052651E-3,6.2135845E-2,-8.471417E-3,1.06914E-3,-3.8776305E-2],"split_indices":[0,0,0,0,0,0,0,0,0,1,0,0,0,0,0,0,0,0,0,0,1,1,0,0,0,0,0,0,0,0,0,0,0,0,0,0,0,0,0,0,0],"split_type":[0,0,0,0,0,0,0,0,0,0,0,0,0,0,0,0,0,0,0,0,0,0,0,0,0,0,0,0,0,0,0,0,0,0,0,0,0,0,0,0,0],"sum_hessian":[2.5970505E2,1.3166315E2,1.2804189E2,1.1823959E2,9.802301E0,9.0023445E1,2.8216146E1,4.1302223E1,4.8721222E1,4.333713E0,2.3882433E1,3.208009E1,9.222136E0,2.7615261E1,2.1105963E1,2.1703498E0,2.1633632E0,2.0776794E1,3.1056392E0,8.948693E0,2.3131395E1,6.0298166E0,3.1923184E0,1.3894448E0,1.9716516E1,1.0880197E0,1.0823301E0,4.334176E0,1.6442617E1,1.1198635E0,1.9857757E0,7.891624E0,1.0570691E0,7.289695E0,1.58417E1,4.402155E0,1.627662E0,1.1264415E0,2.065877E0,4.9150367E0,1.1527581E1],"tree_param":{"num_deleted":"0","num_feature":"4","num_nodes":"41","size_leaf_vector":"0"}},{"base_weights":[1.326076E0,1.4942508E0,-1.17866695E-1,1.2436293E0,1.9216454E0,1.9777632E-1,-4.8951855E-1,1.4227204E0,1.1447523E0,5.686407E-1,1.9447819E0,-9.30632E-2,5.648535E-1,-1.4448842E-1,-5.464715E-1,1.3003546E0,1.745635E0,6.28744E-1,1.2431778E0,1.963277E0,4.4812283E-1,4.196427E-2,-2.7193263E-1,1.0402982E0,-3.4178816E-2,-3.4585124E-1,1.4638768E-1,1.5361558E0,1.0784775E0,1.967748E0,1.1408703E0,-2.5303116E-1,4.14049E-1,-4.1395852E-1,2.7148994E-3,-3.9420947E-1,3.7321654E-1,2.9777894E-2,1.1600335E0,6.425574E-2,-4.1212323E-1,5.9111375E-1,7.6714054E-2,1.0275733E0,1.3529459E0],"categories":[],"categories_nodes":[],"categories_segments":[],"categories_sizes":[],"default_left":[1,1,1,1,1,1,1,1,1,0,1,1,1,1,0,1,0,0,1,0,0,1,1,0,1,0,0,0,0,0,1,1,1,0,0,0,0,0,1,0,0,0,0,0,0],"id":7,"left_children":[1,3,5,7,9,11,13,15,17,-1,19,21,23,25,-1,27,-1,-1,29,-1,-1,31,33,-1,35,-1,-1,-1,-1,-1,37,39,41,-1,-1,-1,-1,-1,43,-1,-1,-1,-1,-1,-1],"loss_changes":[7.345636E1,2.6569885E1,3.8984935E0,1.4394226E0,1.9650879E0,1.9994905E0,2.1915722E-1,2.5939941E-3,5.1477966E0,0E0,1.778717E0,2.778913E-1,2.3718362E0,2.561478E-1,0E0,7.305069E-1,0E0,0E0,4.947235E0,0E0,0E0,8.8995713E-1,1.914719E-1,0E0,8.2152855E-1,0E0,0E0,0E0,0E0,0E0,1.8263245E0,2.5922272E-1,1.6626012E-1,0E0,0E0,0E0,0E0,0E0,8.04512E-1,0E0,0E0,0E0,0E0,0E0,0E0],"parents":[2147483647,0,0,1,1,2,2,3,3,4,4,5,5,6,6,7,7,8,8,10,10,11,11,12,12,13,13,15,15,18,18,21,21,22,22,24,24,30,30,31,31,32,32,38,38],"right_children":[2,4,6,8,10,12,14,16,18,-1,20,22,24,26,-1,28,-1,-1,30,-1,-1,32,34,-1,36,-1,-1,-1,-1,-1,38,40,42,-1,-1,-1,-1,-1,44,-1,-1,-1,-1,-1,-1],"split_conditions":[-1.4997266E-1,1.5E0,-2.0905644E-2,-1.9873568E-1,-2.003595E-1,-1.0303026E-1,4.0503293E-2,-1.9922775E-1,-1.9863728E-1,5.686407E-2,-1.5833767E-1,-1.18431695E-1,-7.508132E-2,1.7917793E-2,-5.4647148E-2,-2.0031027E-1,1.7456351E-1,6.28744E-2,-1.979484E-1,1.963277E-1,4.4812284E-2,-1.3491566E-1,1.5E0,1.0402983E-1,-5.3824376E-2,-3.4585126E-2,1.46387685E-2,1.5361558E-1,1.0784775E-1,1.9677481E-1,-1.9780079E-1,1.5E0,-1.2664908E-1,-4.1395854E-2,2.7148993E-4,-3.9420947E-2,3.7321653E-2,2.9777894E-3,-1.8992785E-1,6.425574E-3,-4.1212324E-2,5.9111375E-2,7.6714056E-3,1.02757335E-1,1.352946E-1],"split_indices":[0,1,0,0,0,0,0,0,0,0,0,0,0,0,0,0,0,0,0,0,0,0,1,0,0,0,0,0,0,0,0,1,0,0,0,0,0,0,0,0,0,0,0,0,0],"split_type":[0,0,0,0,0,0,0,0,0,0,0,0,0,0,0,0,0,0,0,0,0,0,0,0,0,0,0,0,0,0,0,0,0,0,0,0,0,0,0,0,0,0,0,0,0],"sum_hessian":[3.0077017E2,2.6936288E2,3.1407303E1,1.7226035E2,9.710253E1,1.7236355E1,1.4170948E1,5.651279E1,1.1574755E2,2.0625677E0,9.503996E1,1.0033317E1,7.2030377E0,2.5088565E0,1.1662091E1,4.462822E1,1.1884571E1,1.9724958E1,9.60226E1,9.357187E1,1.4680978E0,6.153482E0,3.879835E0,3.6050901E0,3.5979474E0,1.3708614E0,1.1379952E0,1.8763622E1,2.5864597E1,9.62462E0,8.639797E1,3.6107657E0,2.5427163E0,2.2230268E0,1.6568081E0,1.9271864E0,1.6707611E0,1.5081439E0,8.488983E1,1.404933E0,2.2058327E0,1.1741226E0,1.3685937E0,5.4081985E1,3.0807846E1],"tree_param":{"num_deleted":"0","num_feature":"4","num_nodes":"45","size_leaf_vector":"0"}},{"base_weights":[-1.6321455E-1,-3.794632E-1,3.005366E-1,-4.7490695E-1,-2.6240045E-1,5.822654E-1,-2.832217E-2,-4.0636638E-1,-5.7673794E-1,1.096106E0,-3.1497738E-1,3.4010243E-1,1.1164174E0,1.3231254E-1,-5.324842E-1,-4.5815817E-1,-1.99678E-1,1.7288648E-1,1.4663869E0,-6.2394477E-2,-4.3696615E-1,1.6792846E0,1.8088798E-1,-5.667478E-2,1.1372615E0,-1.80562E-1,-4.712914E-1,-7.1488634E-2,-4.6047178E-1,-4.4671777E-1,5.7481396E-1,-4.7483534E-1,-1.761514E-1,-4.175434E-1,2.4437627E-1,-4.1103306E-1,1.0458777E-1,-3.1704837E-1,-5.8576325E-3,2.5840998E-2,-2.2260669E-1,-2.697264E-2,-4.112925E-1,4.1155437E-1,-1.20507576E-1,5.3283733E-1,-4.027958E-2,1.3187997E-1,7.440685E-1,-2.960747E-1,7.5666904E-2,1.5201913E-1,6.0532653E-1,-4.9853984E-1,2.1616372E-1],"categories":[],"categories_nodes":[],"categories_segments":[],"categories_sizes":[],"default_left":[1,1,1,1,1,1,1,1,0,1,1,1,0,1,0,1,1,0,0,1,1,0,1,1,0,1,0,1,0,0,0,0,1,0,1,0,1,0,0,0,0,0,0,1,1,1,1,0,0,0,0,0,0,0,0],"id":8,"left_children":[1,3,5,7,9,11,13,15,-1,17,19,21,-1,23,-1,25,27,-1,-1,29,31,-1,33,35,-1,37,-1,39,-1,-1,-1,-1,41,-1,43,-1,45,-1,-1,-1,-1,-1,-1,47,49,51,53,-1,-1,-1,-1,-1,-1,-1,-1],"loss_changes":[2.6297808E1,1.8697872E0,7.7608933E0,4.4332504E-1,6.23123E0,5.449767E0,3.2711732E0,5.6600094E-1,0E0,8.724294E-1,2.4411983E0,6.614443E0,0E0,5.908984E0,0E0,9.113884E-2,4.3776435E-1,0E0,0E0,6.931952E0,4.4828033E-1,0E0,1.2463908E0,1.5775923E0,0E0,8.88668E-2,0E0,1.6200136E-1,0E0,0E0,0E0,0E0,2.8419107E-1,0E0,1.7491726E0,0E0,1.2159022E0,0E0,0E0,0E0,0E0,0E0,0E0,1.6998317E0,3.5055965E-1,4.426205E-2,1.9076762E0,0E0,0E0,0E0,0E0,0E0,0E0,0E0,0E0],"parents":[2147483647,0,0,1,1,2,2,3,3,4,4,5,5,6,6,7,7,9,9,10,10,11,11,13,13,15,15,16,16,19,19,20,20,22,22,23,23,25,25,27,27,32,32,34,34,36,36,43,43,44,44,45,45,46,46],"right_children":[2,4,6,8,10,12,14,16,-1,18,20,22,-1,24,-1,26,28,-1,-1,30,32,-1,34,36,-1,38,-1,40,-1,-1,-1,-1,42,-1,44,-1,46,-1,-1,-1,-1,-1,-1,48,50,52,54,-1,-1,-1,-1,-1,-1,-1,-1],"split_conditions":[-1.9096115E-1,-1.980468E-1,1.5E0,-1.9903092E-1,-1.9784999E-1,-1.4711872E-1,2.9721403E0,-1.9937536E-1,-5.7673793E-2,-1.979484E-1,-1.9661984E-1,-1.8992785E-1,1.1164174E-1,-1.1458116E-2,-5.3248417E-2,-2.0070392E-1,1E0,1.7288648E-2,1.4663869E-1,-1.9716111E-1,-1.9194528E-1,1.6792846E-1,-1.8795961E-1,-1.8040158E-1,1.13726154E-1,-2.0109758E-1,-4.712914E-2,-1.9912934E-1,-4.6047177E-2,-4.4671778E-2,5.7481397E-2,-4.7483534E-2,5E-1,-4.1754343E-2,-1.6965503E-1,-4.1103307E-2,-1.7383751E-1,-3.170484E-2,-5.8576325E-4,2.5840998E-3,-2.226067E-2,-2.697264E-3,-4.112925E-2,-1.8003745E-1,-1.5769799E-1,-1.7836446E-1,-1.5833767E-1,1.3187997E-2,7.4406855E-2,-2.960747E-2,7.5666904E-3,1.5201913E-2,6.0532656E-2,-4.9853984E-2,2.1616373E-2],"split_indices":[0,0,1,0,0,0,0,0,0,0,0,0,0,0,0,0,1,0,0,0,0,0,0,0,0,0,0,0,0,0,0,0,1,0,0,0,0,0,0,0,0,0,0,0,0,0,0,0,0,0,0,0,0,0,0],"split_type":[0,0,0,0,0,0,0,0,0,0,0,0,0,0,0,0,0,0,0,0,0,0,0,0,0,0,0,0,0,0,0,0,0,0,0,0,0,0,0,0,0,0,0,0,0,0,0,0,0,0,0,0,0,0,0],"sum_hessian":[2.6009207E2,1.7750342E2,8.258865E1,9.6096794E1,8.140662E1,4.4066734E1,3.8521923E1,6.0419876E1,3.5676914E1,2.2936838E0,7.911294E1,3.144676E1,1.2619973E1,2.977322E1,8.748701E0,4.7340637E1,1.3079239E1,1.0765166E0,1.2171673E0,2.6257387E1,5.285555E1,2.32696E0,2.9119799E1,2.5854681E1,3.9185395E0,2.804775E0,4.4535866E1,9.62321E0,3.4560292E0,1.656524E1,9.692146E0,4.5437614E1,7.417934E0,2.2581458E0,2.6861654E1,7.601751E0,1.825293E1,1.1172005E0,1.6875744E0,6.357547E0,3.2656627E0,5.2205863E0,2.1973479E0,1.8333792E1,8.527862E0,3.9368641E0,1.4316066E1,1.0716698E1,7.6170945E0,4.2315645E0,4.296297E0,1.1248183E0,2.8120458E0,4.798021E0,9.518044E0],"tree_param":{"num_deleted":"0","num_feature":"4","num_nodes":"55","size_leaf_vector":"0"}},{"base_weights":[-4.743173E-1,-5.9036165E-1,2.104565E0],"categories":[],"categories_nodes":[],"categories_segments":[],"categories_sizes":[],"default_left":[1,0,0],"id":9,"left_children":[1,-1,-1],"loss_changes":[7.7359116E1,0E0,0E0],"parents":[2147483647,0,0],"right_children":[2,-1,-1],"split_conditions":[4.269158E0,-5.9036165E-2,2.1045649E-1],"split_indices":[0,0,0],"split_type":[0,0,0],"sum_hessian":[2.5334563E2,2.4317436E2,1.0171262E1],"tree_param":{"num_deleted":"0","num_feature":"4","num_nodes":"3","size_leaf_vector":"0"}},{"base_weights":[-5.7863015E-1,-5.86261E-1,-3.5668844E-1,5.991885E-1,-5.322371E-1],"categories":[],"categories_nodes":[],"categories_segments":[],"categories_sizes":[],"default_left":[1,0,1,0,0],"id":10,"left_children":[1,-1,3,-1,-1],"loss_changes":[2.1605682E-1,0E0,2.1476517E0,0E0,0E0],"parents":[2147483647,0,0,2,2],"right_children":[2,-1,4,-1,-1],"split_conditions":[1.4246154E0,-5.8626097E-2,4.269158E0,5.991885E-2,-5.322371E-2],"split_indices":[0,0,0,0,0],"split_type":[0,0,0,0,0],"sum_hessian":[2.5004213E2,2.4014397E2,9.898149E0,1.1613376E0,8.736811E0],"tree_param":{"num_deleted":"0","num_feature":"4","num_nodes":"5","size_leaf_vector":"0"}},{"base_weights":[1.0700723E-1,3.3111763E-1,-1.6916323E-1,5.074553E-1,-7.820258E-3,-3.5446215E-1,2.8001392E-1,2.7843836E-1,7.501018E-1,1.1496047E-1,-1.276599E-1,5.540631E-1,-3.9367694E-1,5.4007965E-1,-5.284999E-1,4.401208E-1,-3.5961607E-1,1.2353303E0,3.6384085E-1,-1.1908772E-1,4.3696636E-1,-2.4394637E-1,2.8229123E-1,-3.876736E-1,1.4809924E0,-5.5284E-1,-3.5390168E-1,-1.1510385E-2,8.669681E-1,-4.3468738E-1,5.118969E-1,-3.0983764E-1,6.6197604E-1,2.2762187E-3,-4.539903E-1,1.0444454E0,1.5248641E-1,-1.6965123E-1,-4.723917E-1,5.98192E-1,-3.7550357E-1,5.0566816E-1,-3.9050743E-1,-1.5646431E-1,2.8028616E-1,-2.5609923E-3,9.6045405E-1,3.8558012E-1,5.7286006E-1,2.1074985E-1,-5.078333E-1,4.3584704E-1,9.1093117E-1,-4.058339E-1,1.2457399E-1,-3.8982567E-1,3.5820532E-1,-3.4885144E-1,7.258222E-2,1.3559595E-1,1.0819033E0,-4.4589883E-1,-3.0754283E-1,1.9693223E-1,-3.2538068E-1,5.9491223E-1,-3.092197E-1,1.046579E0,2.556346E-1,7.3646563E-1,-4.359268E-1,1.9965051E-1,-1.9351909E-2,-1.5111972E-1,-4.9282095E-1,6.098376E-1,-1.9094099E-1,-3.0895713E-1,-5.6309694E-1,3.0442268E-1,-3.8680515E-1,-4.253147E-1,-1.290914E-1,6.835183E-1,1.3434906E0],"categories":[],"categories_nodes":[],"categories_segments":[],"categories_sizes":[],"default_left":[1,1,1,1,1,1,1,1,1,1,1,1,1,1,0,1,0,0,1,1,1,1,1,0,0,0,1,1,1,0,1,1,1,1,0,0,1,1,0,1,0,0,1,1,1,0,1,0,0,0,0,1,0,0,1,0,0,1,1,0,0,1,1,0,1,0,0,1,0,0,0,0,0,0,0,0,0,0,0,0,0,0,0,0,0],"id":11,"left_children":[1,3,5,7,9,11,13,15,17,19,21,23,25,27,-1,29,-1,-1,31,33,35,37,39,-1,-1,-1,41,43,45,-1,47,49,51,53,-1,-1,55,57,-1,59,-1,-1,61,63,65,-1,67,-1,-1,-1,-1,69,-1,-1,71,-1,-1,73,75,-1,-1,77,79,-1,81,-1,-1,83,-1,-1,-1,-1,-1,-1,-1,-1,-1,-1,-1,-1,-1,-1,-1,-1,-1],"loss_changes":[1.6595161E1,8.840803E0,1.0117857E1,5.1964664E0,7.7367187E-1,3.2698755E0,7.7946124E0,5.4846263E0,8.291916E0,2.0119126E0,1.3358895E0,4.030591E0,3.2788467E-1,4.971281E0,0E0,2.8372517E0,0E0,0E0,5.705387E0,6.450623E-1,1.7693529E0,2.80375E-1,1.5413803E0,0E0,0E0,0E0,2.3667393E0,5.186678E-1,1.4079399E0,0E0,7.901096E-2,1.0431991E0,6.896467E-1,6.807061E-1,0E0,0E0,1.1182292E0,7.888266E-1,0E0,8.974918E-1,0E0,0E0,1.69343E-1,5.500934E-1,9.414258E-1,0E0,6.8027973E-1,0E0,0E0,0E0,0E0,3.4744365E0,0E0,0E0,1.170996E-1,0E0,0E0,2.1822846E-1,1.2925236E0,0E0,0E0,4.3217182E-1,1.5691674E0,0E0,6.0549676E-2,0E0,0E0,5.467434E-1,0E0,0E0,0E0,0E0,0E0,0E0,0E0,0E0,0E0,0E0,0E0,0E0,0E0,0E0,0E0,0E0,0E0],"parents":[2147483647,0,0,1,1,2,2,3,3,4,4,5,5,6,6,7,7,8,8,9,9,10,10,11,11,12,12,13,13,15,15,18,18,19,19,20,20,21,21,22,22,26,26,27,27,28,28,30,30,31,31,32,32,33,33,36,36,37,37,39,39,42,42,43,43,44,44,46,46,51,51,54,54,57,57,58,58,61,61,62,62,64,64,67,67],"right_children":[2,4,6,8,10,12,14,16,18,20,22,24,26,28,-1,30,-1,-1,32,34,36,38,40,-1,-1,-1,42,44,46,-1,48,50,52,54,-1,-1,56,58,-1,60,-1,-1,62,64,66,-1,68,-1,-1,-1,-1,70,-1,-1,72,-1,-1,74,76,-1,-1,78,80,-1,82,-1,-1,84,-1,-1,-1,-1,-1,-1,-1,-1,-1,-1,-1,-1,-1,-1,-1,-1,-1],"split_conditions":[5E-1,-1.9661984E-1,-1.5849513E-1,-1.9873568E-1,-1.9155163E-1,-2.003595E-1,5E-1,-1.996214E-1,-1.9863728E-1,-1.9386432E-1,-1.6670266E-1,-2.0056614E-1,-1.9878489E-1,1.5E0,-5.284999E-2,-2.0070392E-1,-3.596161E-2,1.2353303E-1,-1.9780079E-1,-1.946024E-1,-1.9342145E-1,-1.753629E-1,-1.1454443E-1,-3.876736E-2,1.4809924E-1,-5.5284E-2,-1.9858807E-1,-8.377108E-2,-1.4561795E-1,-4.346874E-2,-2.0021187E-1,-1.9824363E-1,-1.9681665E-1,-1.9607857E-1,-4.5399033E-2,1.0444454E-1,-1.9253576E-1,-1.846628E-1,-4.723917E-2,-1.4554414E-1,-3.7550356E-2,5.056682E-2,-1.9396272E-1,-1.4923458E-1,-1.0720028E-2,-2.5609924E-4,4.8724347E-1,3.8558014E-2,5.7286005E-2,2.1074986E-2,-5.0783332E-2,-1.9745633E-1,9.1093116E-2,-4.058339E-2,-1.9504525E-1,-3.8982566E-2,3.5820533E-2,-1.8751675E-1,-1.8318662E-1,1.3559595E-2,1.08190335E-1,-1.9563572E-1,-1.9204369E-1,1.9693224E-2,-1.11395255E-1,5.9491225E-2,-3.092197E-2,-7.650828E-2,2.5563462E-2,7.364657E-2,-4.359268E-2,1.996505E-2,-1.9351909E-3,-1.5111973E-2,-4.9282096E-2,6.098376E-2,-1.90941E-2,-3.0895714E-2,-5.6309696E-2,3.0442268E-2,-3.8680516E-2,-4.253147E-2,-1.29091395E-2,6.835183E-2,1.3434906E-1],"split_indices":[1,0,0,0,0,0,2,0,0,0,0,0,0,1,0,0,0,0,0,0,0,0,0,0,0,0,0,0,0,0,0,0,0,0,0,0,0,0,0,0,0,0,0,0,0,0,0,0,0,0,0,0,0,0,0,0,0,0,0,0,0,0,0,0,0,0,0,0,0,0,0,0,0,0,0,0,0,0,0,0,0,0,0,0,0],"split_type":[0,0,0,0,0,0,0,0,0,0,0,0,0,0,0,0,0,0,0,0,0,0,0,0,0,0,0,0,0,0,0,0,0,0,0,0,0,0,0,0,0,0,0,0,0,0,0,0,0,0,0,0,0,0,0,0,0,0,0,0,0,0,0,0,0,0,0,0,0,0,0,0,0,0,0,0,0,0,0,0,0,0,0,0,0],"sum_hessian":[2.6622305E2,1.468535E2,1.1936956E2,9.627023E1,5.058326E1,8.465692E1,3.471263E1,5.0630856E1,4.563938E1,2.5005152E1,2.5578108E1,2.9596255E0,8.1697296E1,2.6515646E1,8.196988E0,4.0642338E1,9.988519E0,1.925398E1,2.63854E1,1.4845182E1,1.0159969E1,2.0241388E1,5.3367205E0,1.7566646E0,1.2029608E0,1.3755343E1,6.7941956E1,1.0225675E1,1.628997E1,2.698374E0,3.7943962E1,8.08253E0,1.830287E1,1.1625478E1,3.2197046E0,2.3883855E0,7.7715836E0,1.6588951E1,3.652437E0,3.6665156E0,1.6702051E0,2.2517948E0,6.569016E1,7.1417184E0,3.0839562E0,1.6757877E0,1.4614183E1,1.4735833E1,2.320813E1,2.2092805E0,5.8732495E0,1.1032564E1,7.2703066E0,2.1459596E0,9.479518E0,1.8911712E0,5.880412E0,9.28208E0,7.306871E0,2.5286102E0,1.1379054E0,3.6767643E1,2.8922518E1,2.2559988E0,4.8857193E0,2.0048003E0,1.079156E0,1.2590772E1,2.0234115E0,8.319065E0,2.713499E0,5.9753838E0,3.5041344E0,4.7744217E0,4.507658E0,1.9721004E0,5.3347707E0,1.8632473E1,1.813517E1,2.9907725E0,2.5931746E1,2.46432E0,2.4213996E0,7.1499596E0,5.440812E0],"tree_param":{"num_deleted":"0","num_feature":"4","num_nodes":"85","size_leaf_vector":"0"}},{"base_weights":[-4.6385446E-1,-5.350483E-1,-3.5549834E-1,-2.0431994E-1,-3.8141426E-1,-3.4612584E-1,4.6570003E-1,-5.2718234E-1,-3.0964842E-1,1.288216E-1,5.8902186E-1,-2.2822408E-1,-4.587611E-1,-2.6546538E-1,4.1959697E-1,-3.9401737E-1,-1.9167162E-1,-7.203845E-2,-5.2659905E-1,-3.8559353E-1,-1.0531102E-1],"categories":[],"categories_nodes":[],"categories_segments":[],"categories_sizes":[],"default_left":[1,0,1,1,1,0,1,0,1,0,0,1,0,1,0,1,1,0,0,0,0],"id":12,"left_children":[1,-1,3,5,7,-1,9,-1,11,-1,-1,13,-1,15,-1,17,19,-1,-1,-1,-1],"loss_changes":[1.6959763E0,0E0,3.1358624E-1,1.7552567E0,7.170887E-1,0E0,6.358391E-2,0E0,6.093745E-1,0E0,0E0,1.0771573E0,0E0,2.893896E-1,0E0,5.2048826E-1,4.012798E-1,0E0,0E0,0E0,0E0],"parents":[2147483647,0,0,2,2,3,3,4,4,6,6,8,8,11,11,13,13,15,15,16,16],"right_children":[2,-1,4,6,8,-1,10,-1,12,-1,-1,14,-1,16,-1,18,20,-1,-1,-1,-1],"split_conditions":[-1.946024E-1,-5.3504832E-2,-1.9194528E-1,-1.9273257E-1,-1.8225172E-1,-3.4612585E-2,-1.921421E-1,-5.2718233E-2,-9.904458E-2,1.288216E-2,5.8902185E-2,-1.04905E-1,-4.587611E-2,5E-1,4.19597E-2,-1.7644542E-1,-1.7516607E-1,-7.203845E-3,-5.2659906E-2,-3.8559355E-2,-1.0531102E-2],"split_indices":[0,0,0,0,0,0,0,0,0,0,0,0,0,1,0,0,0,0,0,0,0],"split_type":[0,0,0,0,0,0,0,0,0,0,0,0,0,0,0,0,0,0,0,0,0],"sum_hessian":[2.4350562E2,1.445761E2,9.892953E1,1.5777385E1,8.315214E1,1.3420436E1,2.3569489E0,2.533889E1,5.781325E1,1.1795009E0,1.1774478E0,3.903072E1,1.8782534E1,3.7467068E1,1.5636518E0,1.208136E1,2.5385706E1,3.9739192E0,8.107441E0,6.754229E0,1.8631477E1],"tree_param":{"num_deleted":"0","num_feature":"4","num_nodes":"21","size_leaf_vector":"0"}},{"base_weights":[1.1295737E0,1.2804738E0,-2.2449245E-1,1.0789914E0,1.6067744E0,6.410543E-2,-5.5105954E-1,1.1396652E0,8.6414677E-1,1.6214676E0,3.7733576E-1,-2.5267893E-1,1.5553558E-1,1.0757207E0,1.3646636E0,4.1985482E-1,1.0675973E0,1.3935803E-1,-4.2425904E-1,2.4947129E-1,-2.2925872E-2,1.137792E0,9.306319E-2,5.418651E-1,-3.9263743E-1,1.4392782E0,8.5785156E-1,6.145444E-2,7.6441807E-1,-2.2541907E-1,2.6924545E-1,1.1836804E0,7.820519E-1,6.3260186E-1,-3.2059148E-1,-2.2065569E-2,9.317414E-1,1.8397601E-1,-3.395422E-1,-2.0685511E-4,-3.644449E-1,1.0993884E0,1.7080982E0,4.309511E-1,1.559668E0,2.636113E-1,1.0801566E0,6.775308E-1,1.2520381E0,-2.1074025E-3,3.4854198E-1],"categories":[],"categories_nodes":[],"categories_segments":[],"categories_sizes":[],"default_left":[1,1,1,1,1,1,0,1,1,0,0,1,1,1,0,1,1,0,0,1,1,1,0,1,0,0,1,1,0,1,0,1,1,1,0,0,1,1,0,0,0,0,0,0,0,0,0,0,0,0,0],"id":13,"left_children":[1,3,5,7,9,11,-1,13,15,-1,-1,17,19,21,-1,23,25,-1,-1,27,29,31,-1,33,-1,-1,35,37,-1,39,-1,41,43,45,-1,-1,47,49,-1,-1,-1,-1,-1,-1,-1,-1,-1,-1,-1,-1,-1],"loss_changes":[6.750305E1,1.7734589E1,3.2241426E0,1.44133E0,1.3933105E0,5.85479E-1,0E0,5.7499695E-1,3.6305428E0,0E0,0E0,3.688564E-1,2.614154E-1,6.92659E0,0E0,1.7811418E0,1.1276474E0,0E0,0E0,9.286689E-1,4.2606598E-1,8.431549E-1,0E0,1.3121424E0,0E0,0E0,1.4409485E0,4.78567E-1,0E0,1.3117638E-1,0E0,2.2786407E0,3.5126286E0,1.888968E0,0E0,0E0,7.945881E-1,2.192513E-1,0E0,0E0,0E0,0E0,0E0,0E0,0E0,0E0,0E0,0E0,0E0,0E0,0E0],"parents":[2147483647,0,0,1,1,2,2,3,3,4,4,5,5,7,7,8,8,11,11,12,12,13,13,15,15,16,16,19,19,20,20,21,21,23,23,26,26,27,27,29,29,31,31,32,32,33,33,36,36,37,37],"right_children":[2,4,6,8,10,12,-1,14,16,-1,-1,18,20,22,-1,24,26,-1,-1,28,30,32,-1,34,-1,-1,36,38,-1,40,-1,42,44,46,-1,-1,48,50,-1,-1,-1,-1,-1,-1,-1,-1,-1,-1,-1,-1,-1],"split_conditions":[-1.5121019E-1,1.5E0,-2.5334172E-2,-1.9273257E-1,-1.5981385E-1,-1.3816324E-1,-5.5105954E-2,-1.9661984E-1,-1.8751675E-1,1.6214676E-1,3.7733577E-2,-1.4800444E-1,-8.511932E-2,-1.9716111E-1,1.3646637E-1,5E-1,-1.8220252E-1,1.3935803E-2,-4.2425904E-2,-1.0303026E-1,-5.3824376E-2,-1.979484E-1,9.306319E-3,-1.8835324E-1,-3.9263744E-2,1.4392783E-1,-1.8121839E-1,-1.0687324E-1,7.644181E-2,-7.508132E-2,2.6924545E-2,-1.9863728E-1,-1.9755474E-1,-1.9155163E-1,-3.2059148E-2,-2.206557E-3,5E-1,-1.2138405E-1,-3.395422E-2,-2.0685511E-5,-3.6444493E-2,1.0993884E-1,1.7080982E-1,4.3095108E-2,1.559668E-1,2.6361128E-2,1.0801566E-1,6.7753084E-2,1.2520382E-1,-2.1074025E-4,3.48542E-2],"split_indices":[0,1,0,0,0,0,0,0,0,0,0,0,0,0,0,1,0,0,0,0,0,0,0,0,0,0,0,0,0,0,0,0,0,0,0,0,1,0,0,0,0,0,0,0,0,0,0,0,0,0,0],"split_type":[0,0,0,0,0,0,0,0,0,0,0,0,0,0,0,0,0,0,0,0,0,0,0,0,0,0,0,0,0,0,0,0,0,0,0,0,0,0,0,0,0,0,0,0,0,0,0,0,0,0,0],"sum_hessian":[3.279579E2,2.9512308E2,3.283483E1,1.8512178E2,1.1000129E2,1.7857382E1,1.49774475E1,1.4099823E2,4.4123543E1,1.0838708E2,1.6142107E0,3.6046104E0,1.4252772E1,1.1429626E2,2.6701979E1,1.4821111E1,2.9302433E1,1.1545099E0,2.4501004E0,9.077042E0,5.1757307E0,1.0735699E2,6.9392734E0,1.3175635E1,1.6454755E0,8.45597E0,2.0846462E1,7.4692264E0,1.6078153E0,3.1919658E0,1.9837646E0,9.302937E1,1.432761E1,1.2162557E1,1.0130782E0,1.669276E0,1.9177187E1,6.135709E0,1.3335174E0,1.6005971E0,1.5913687E0,8.281461E1,1.0214766E1,1.0941581E1,3.386029E0,7.537335E0,4.6252217E0,1.2428418E1,6.748768E0,3.3429046E0,2.7928042E0],"tree_param":{"num_deleted":"0","num_feature":"4","num_nodes":"51","size_leaf_vector":"0"}},{"base_weights":[-1.4728111E-1,-3.674178E-1,2.6359233E-1,-4.481356E-1,-2.550628E-1,3.440503E-1,-5.201127E-1,3.8108297E-2,-4.6454322E-1,8.337315E-1,-3.1161767E-1,2.0035039E-1,8.436065E-1,1.6287304E-1,-6.288025E-2,-3.9344874E-1,-5.6976557E-1,-6.887805E-2,-4.4351476E-1,3.4230268E-1,-4.73253E-2,1.5998944E0,6.5224713E-1,-4.4870088E-1,-1.6343659E-1,-4.213654E-1,4.1765228E-1,5.97214E-1,2.198364E-1,-3.6545232E-1,2.1206981E-1,3.5694644E-1,9.6202093E-1,3.1187598E-2,-4.7245288E-1,2.8859615E-1,9.694396E-1,-3.6450952E-1,3.734916E-1,-4.9292836E-1,-1.9138204E-1,6.887539E-1,-1.09835334E-1,5.341716E-1,9.3933165E-2,1.3118333E0,4.2646152E-1,1.0783481E-1,-1.2482242E-1,1.2795193E0,4.3029127E-1,5.441534E-1,1.6832249E-1,1.8006374E-1,-4.4752166E-1,6.4333424E-2,8.704692E-1,-4.7709936E-1,2.578181E-1,2.0415573E-1,9.169382E-1,4.510827E-1,-1.6770695E-1,-3.97924E-1,1.0886072E0],"categories":[],"categories_nodes":[],"categories_segments":[],"categories_sizes":[],"default_left":[1,1,1,1,1,1,0,1,1,0,1,1,1,0,0,1,0,1,0,1,1,0,1,0,1,0,0,1,1,1,1,1,1,1,0,0,1,0,1,0,1,1,1,1,1,0,1,0,0,0,0,0,0,0,0,0,0,0,0,0,0,0,0,0,0],"id":14,"left_children":[1,3,5,7,9,11,-1,13,15,-1,17,19,21,-1,-1,23,-1,25,-1,27,29,-1,31,-1,33,-1,-1,35,37,39,41,43,45,47,-1,-1,49,-1,51,-1,53,55,57,59,61,-1,63,-1,-1,-1,-1,-1,-1,-1,-1,-1,-1,-1,-1,-1,-1,-1,-1,-1,-1],"loss_changes":[2.3364222E1,1.4085636E0,5.874464E0,7.8676224E-1,4.7255206E0,5.7546234E0,0E0,6.153235E-2,4.739685E-1,0E0,2.2000456E0,2.3153749E0,1.5792227E0,0E0,0E0,6.755409E-1,0E0,4.5855308E0,0E0,1.1702352E0,2.1160777E0,0E0,1.1340775E0,0E0,7.957524E-1,0E0,0E0,1.207531E0,2.8068144E0,1.6002357E-1,2.2608685E0,4.0936577E-1,8.067851E-1,1.19955376E-1,0E0,0E0,3.5970545E-1,0E0,7.503419E-1,0E0,6.9715416E-1,6.1094785E-1,1.3872449E0,5.298629E-1,5.598961E-1,0E0,2.8147798E0,0E0,0E0,0E0,0E0,0E0,0E0,0E0,0E0,0E0,0E0,0E0,0E0,0E0,0E0,0E0,0E0,0E0,0E0],"parents":[2147483647,0,0,1,1,2,2,3,3,4,4,5,5,7,7,8,8,10,10,11,11,12,12,15,15,17,17,19,19,20,20,22,22,24,24,27,27,28,28,29,29,30,30,31,31,32,32,33,33,36,36,38,38,40,40,41,41,42,42,43,43,44,44,46,46],"right_children":[2,4,6,8,10,12,-1,14,16,-1,18,20,22,-1,-1,24,-1,26,-1,28,30,-1,32,-1,34,-1,-1,36,38,40,42,44,46,48,-1,-1,50,-1,52,-1,54,56,58,60,62,-1,64,-1,-1,-1,-1,-1,-1,-1,-1,-1,-1,-1,-1,-1,-1,-1,-1,-1,-1],"split_conditions":[-1.9233893E-1,-1.980468E-1,2.9721403E0,-2.0070392E-1,-1.9784999E-1,-1.2664908E-1,-5.201127E-2,-2.0109758E-1,-1.9903092E-1,8.337315E-2,-1.9661984E-1,1.5E0,-1.0883655E-1,1.6287304E-2,-6.288025E-3,-1.9932616E-1,-5.6976557E-2,-1.9716111E-1,-4.4351477E-2,-1.8776277E-1,-1.8040158E-1,1.5998945E-1,-1.0227969E-2,-4.487009E-2,1E0,-4.2136542E-2,4.1765228E-2,-1.9096115E-1,-1.838263E-1,-1.8810722E-1,-1.7383751E-1,1.5E0,1.0614394E-1,-1.9912934E-1,-4.724529E-2,2.8859615E-2,-1.8968181E-1,-3.6450952E-2,-1.7152484E-1,-4.9292836E-2,-1.8648341E-1,-1.7836446E-1,-1.5833767E-1,-6.927502E-2,-8.2875535E-2,1.3118333E-1,4.8724347E-1,1.0783481E-2,-1.2482243E-2,1.2795193E-1,4.3029126E-2,5.441534E-2,1.683225E-2,1.8006375E-2,-4.4752166E-2,6.4333426E-3,8.704692E-2,-4.770994E-2,2.578181E-2,2.0415572E-2,9.169382E-2,4.510827E-2,-1.6770696E-2,-3.97924E-2,1.0886072E-1],"split_indices":[0,0,0,0,0,0,0,0,0,0,0,1,0,0,0,0,0,0,0,0,0,0,0,0,1,0,0,0,0,0,0,1,0,0,0,0,0,0,0,0,0,0,0,0,0,0,0,0,0,0,0,0,0,0,0,0,0,0,0,0,0,0,0,0,0],"split_type":[0,0,0,0,0,0,0,0,0,0,0,0,0,0,0,0,0,0,0,0,0,0,0,0,0,0,0,0,0,0,0,0,0,0,0,0,0,0,0,0,0,0,0,0,0,0,0,0,0,0,0,0,0,0,0,0,0,0,0,0,0,0,0,0,0],"sum_hessian":[2.5624493E2,1.6691917E2,8.932576E1,9.539627E1,7.152291E1,8.151784E1,7.807919E0,3.0707643E0,9.232551E1,2.853097E0,6.866981E1,6.439526E1,1.7122572E1,1.0995522E0,1.9712121E0,5.7926277E1,3.439923E1,2.4712273E1,4.395754E1,4.0691418E1,2.370385E1,1.9712282E0,1.5151344E1,4.594006E1,1.1986218E1,1.4407843E1,1.0304429E1,1.1947131E1,2.8744286E1,1.0462984E1,1.3240865E1,8.85876E0,6.2925844E0,7.9059677E0,4.0802503E0,7.5022388E0,4.444892E0,5.698981E0,2.3045305E1,4.982441E0,5.480543E0,4.8779187E0,8.362946E0,4.676587E0,4.1821733E0,2.9295933E0,3.362991E0,5.50847E0,2.3974977E0,1.9501064E0,2.4947855E0,1.1678656E1,1.136665E1,2.358022E0,3.1225214E0,1.4047772E0,3.4731417E0,4.0347657E0,4.32818E0,3.3347673E0,1.3418196E0,1.4621798E0,2.7199934E0,1.6757212E0,1.68727E0],"tree_param":{"num_deleted":"0","num_feature":"4","num_nodes":"65","size_leaf_vector":"0"}},{"base_weights":[-4.592124E-1,-5.838458E-1,1.7505093E0],"categories":[],"categories_nodes":[],"categories_segments":[],"categories_sizes":[],"default_left":[1,0,0],"id":15,"left_children":[1,-1,-1],"loss_changes":[6.9096436E1,0E0,0E0],"parents":[2147483647,0,0],"right_children":[2,-1,-1],"split_conditions":[5E-1,-5.838458E-2,1.7505093E-1],"split_indices":[2,0,0],"split_type":[0,0,0],"sum_hessian":[2.4617912E2,2.3373189E2,1.2447236E1],"tree_param":{"num_deleted":"0","num_feature":"4","num_nodes":"3","size_leaf_vector":"0"}},{"base_weights":[-5.7168067E-1,-5.795208E-1,-3.512817E-1,4.2412728E-1,-5.234086E-1],"categories":[],"categories_nodes":[],"categories_segments":[],"categories_sizes":[],"default_left":[1,0,1,0,0],"id":16,"left_children":[1,-1,3,-1,-1],"loss_changes":[2.1268463E-1,0E0,1.6653181E0,0E0,0E0],"parents":[2147483647,0,0,2,2],"right_children":[2,-1,4,-1,-1],"split_conditions":[1.4246154E0,-5.7952084E-2,4.269158E0,4.2412728E-2,-5.234086E-2],"split_indices":[0,0,0,0,0],"split_type":[0,0,0,0,0],"sum_hessian":[2.398953E2,2.3008133E2,9.813966E0,1.5168258E0,8.29714E0],"tree_param":{"num_deleted":"0","num_feature":"4","num_nodes":"5","size_leaf_vector":"0"}},{"base_weights":[1.3346069E-1,3.351975E-1,-1.5046872E-1,5.1845133E-1,-1.5057791E-2,-3.2362345E-1,2.1020226E-1,2.9313198E-1,7.4354535E-1,1.00905985E-1,-1.3885124E-1,8.6441326E-1,-3.797852E-1,4.9930263E-1,-4.5641056E-1,4.4140366E-1,-3.4858462E-1,1.109422E0,4.5522523E-1,-4.5529798E-2,5.2342373E-1,-4.0218082E-1,-2.5716536E-2,5.067955E-2,1.3451784E0,-4.2602113E-1,-1.945762E-1,-3.319868E-2,8.5867274E-1,-8.246913E-2,-5.264719E-1,-4.386299E-1,5.1318127E-1,-3.456631E-1,8.374103E-1,-4.40528E-1,3.4612343E-2,5.8724993E-1,-1.6091867E-1,-3.537567E-1,-4.9510407E-1,3.773009E-1,-3.882707E-1,-2.2699967E-1,2.121632E-1,1.6688883E-1,9.695387E-1,2.9547212E-1,6.275604E-1,3.750973E-1,-5.224336E-1,1.102353E0,5.087598E-1,4.640461E-1,-1.908351E-1,-9.583862E-2,-4.1510528E-1,-5.4264057E-1,-2.0884973E-1,-5.5629915E-1,-3.2588962E-1,-2.6270114E-2,6.3845587E-1,-1.0866336E-1,-4.386678E-1,8.239729E-2,-4.529223E-1,5.2680314E-1,-3.645418E-1,1.3090464E0,7.514365E-1,-4.5161164E-1,9.452144E-1,-3.088543E-1,3.3309534E-2,-1.957547E-1,5.8366567E-1,3.9468703E-1,-3.2297793E-1,4.9270302E-1,-5.2069455E-1,-3.309353E-1,1.9540758E-1,1.6861199E-1,-1.410816E-2,2.0649053E-2,8.4342605E-1,1.5394492E-1,1.0409642E0],"categories":[],"categories_nodes":[],"categories_segments":[],"categories_sizes":[],"default_left":[1,1,1,1,1,1,1,1,1,1,1,1,1,1,1,1,0,0,1,1,0,0,1,0,0,1,1,1,1,0,0,0,1,1,1,0,1,0,1,1,1,1,1,1,1,0,1,0,0,0,0,0,1,0,1,1,0,0,1,0,1,0,0,1,0,1,0,1,0,0,1,0,0,0,0,0,0,0,0,0,0,0,0,0,0,0,0,0,0],"id":17,"left_children":[1,3,5,7,9,11,13,15,17,19,21,23,25,27,29,31,-1,-1,33,35,-1,-1,37,-1,-1,39,41,43,45,-1,-1,-1,47,49,51,-1,53,-1,55,57,59,61,63,65,67,-1,69,-1,-1,-1,-1,-1,71,-1,73,75,-1,-1,77,-1,79,-1,-1,81,-1,83,-1,85,-1,-1,87,-1,-1,-1,-1,-1,-1,-1,-1,-1,-1,-1,-1,-1,-1,-1,-1,-1,-1],"loss_changes":[1.56116295E1,1.02219925E1,7.1587114E0,5.082199E0,8.126497E-1,5.4728537E0,7.442128E0,5.28007E0,4.9410267E0,1.8369133E0,8.0383044E-1,1.4128258E0,5.535183E-1,5.1165233E0,2.6693797E-1,3.017397E0,0E0,0E0,9.646357E0,7.332599E-1,0E0,0E0,1.7672619E0,0E0,0E0,1.1755371E-1,1.9949452E0,6.0337716E-1,1.0585604E0,0E0,0E0,0E0,8.438091E-1,1.544344E0,1.2665148E0,0E0,2.0038548E0,0E0,2.4676085E-1,7.668667E-1,1.0319042E-1,5.152015E-1,1.3493192E-1,5.270798E-1,1.2208024E0,0E0,1.6427994E-2,0E0,0E0,0E0,0E0,0E0,5.1315203E0,0E0,3.7220275E-1,1.1388344E0,0E0,0E0,1.4929206E0,0E0,1.8051108E0,0E0,0E0,2.882572E-1,0E0,3.40213E-2,0E0,6.3599515E-1,0E0,0E0,1.6684265E0,0E0,0E0,0E0,0E0,0E0,0E0,0E0,0E0,0E0,0E0,0E0,0E0,0E0,0E0,0E0,0E0,0E0,0E0],"parents":[2147483647,0,0,1,1,2,2,3,3,4,4,5,5,6,6,7,7,8,8,9,9,10,10,11,11,12,12,13,13,14,14,15,15,18,18,19,19,22,22,25,25,26,26,27,27,28,28,32,32,33,33,34,34,36,36,38,38,39,39,40,40,41,41,42,42,43,43,44,44,46,46,52,52,54,54,55,55,58,58,60,60,63,63,65,65,67,67,70,70],"right_children":[2,4,6,8,10,12,14,16,18,20,22,24,26,28,30,32,-1,-1,34,36,-1,-1,38,-1,-1,40,42,44,46,-1,-1,-1,48,50,52,-1,54,-1,56,58,60,62,64,66,68,-1,70,-1,-1,-1,-1,-1,72,-1,74,76,-1,-1,78,-1,80,-1,-1,82,-1,84,-1,86,-1,-1,88,-1,-1,-1,-1,-1,-1,-1,-1,-1,-1,-1,-1,-1,-1,-1,-1,-1,-1],"split_conditions":[5E-1,-1.9661984E-1,-1.6212651E-1,-1.9873568E-1,-1.9155163E-1,-2.003595E-1,4.8724347E-1,-1.996214E-1,-1.9858807E-1,-1.9253576E-1,-1.8515486E-1,-2.0056614E-1,-1.8820563E-1,1.5E0,4.269158E0,-2.0070392E-1,-3.485846E-2,1.109422E-1,-1.9780079E-1,-1.9607857E-1,5.2342374E-2,-4.021808E-2,-1.8318662E-1,5.0679552E-3,1.3451783E-1,-1.9563572E-1,-1.8308821E-1,-1.09033376E-1,-1.4561795E-1,-8.246913E-3,-5.2647192E-2,-4.386299E-2,-2.0021187E-1,-1.9824363E-1,-1.9755474E-1,-4.4052802E-2,-1.954881E-1,5.8724996E-2,-1.3575217E-1,-1.9878489E-1,-1.9396272E-1,-1.8648341E-1,-1.8054919E-1,-1.4923458E-1,-1.0720028E-2,1.6688883E-2,-1.2669829E-1,2.9547213E-2,6.275604E-2,3.7509732E-2,-5.224336E-2,1.10235296E-1,-1.9681665E-1,4.640461E-2,-1.9391352E-1,-1.5194091E-1,-4.151053E-2,-5.4264057E-2,-1.9858807E-1,-5.5629916E-2,-1.9347066E-1,-2.6270114E-3,6.384559E-2,-1.8180886E-1,-4.386678E-2,-1.5725514E-1,-4.5292232E-2,-8.377108E-2,-3.6454182E-2,1.3090464E-1,-7.508132E-2,-4.5161165E-2,9.452144E-2,-3.0885432E-2,3.3309534E-3,-1.9575471E-2,5.8366567E-2,3.9468702E-2,-3.2297794E-2,4.9270302E-2,-5.2069455E-2,-3.309353E-2,1.9540759E-2,1.6861198E-2,-1.410816E-3,2.0649054E-3,8.434261E-2,1.5394493E-2,1.0409643E-1],"split_indices":[1,0,0,0,0,0,0,0,0,0,0,0,0,1,0,0,0,0,0,0,0,0,0,0,0,0,0,0,0,0,0,0,0,0,0,0,0,0,0,0,0,0,0,0,0,0,0,0,0,0,0,0,0,0,0,0,0,0,0,0,0,0,0,0,0,0,0,0,0,0,0,0,0,0,0,0,0,0,0,0,0,0,0,0,0,0,0,0,0],"split_type":[0,0,0,0,0,0,0,0,0,0,0,0,0,0,0,0,0,0,0,0,0,0,0,0,0,0,0,0,0,0,0,0,0,0,0,0,0,0,0,0,0,0,0,0,0,0,0,0,0,0,0,0,0,0,0,0,0,0,0,0,0,0,0,0,0,0,0,0,0,0,0,0,0,0,0,0,0,0,0,0,0,0,0,0,0,0,0,0,0],"sum_hessian":[2.706735E2,1.5813515E2,1.1253835E2,1.0350241E2,5.4632736E1,7.610418E1,3.643418E1,5.2875874E1,5.0626534E1,2.830389E1,2.6328844E1,2.7856426E0,7.3318535E1,2.5588013E1,1.0846168E1,4.3205246E1,9.670627E0,2.1057192E1,2.9569344E1,2.1681707E1,6.622183E0,7.1445284E0,1.9184315E1,1.4451032E0,1.3405395E0,5.763117E1,1.5687365E1,1.0676133E1,1.491188E1,2.0550041E0,8.791163E0,2.8727527E0,4.0332497E1,9.5830765E0,1.9986267E1,2.8985806E0,1.8783127E1,2.8626068E0,1.6321709E1,3.1158491E1,2.6472677E1,3.7291744E0,1.1958191E1,6.006606E0,4.669527E0,2.4057493E0,1.250613E1,1.5125632E1,2.5206863E1,1.6664361E0,7.91664E0,9.762231E0,1.0224036E1,6.101885E0,1.2681243E1,1.4090995E1,2.230713E0,1.2335115E1,1.8823376E1,1.7761744E1,8.710935E0,1.8184594E0,1.910715E0,2.3082073E0,9.649983E0,2.8030987E0,3.2035074E0,3.0771945E0,1.5923328E0,2.935152E0,9.570978E0,3.1837687E0,7.040268E0,8.059656E0,4.621587E0,1.2905284E1,1.1857111E0,2.6024947E0,1.622088E1,1.3805392E0,7.3303957E0,1.2824234E0,1.025784E0,1.085856E0,1.7172426E0,1.5940921E0,1.4831022E0,3.6239755E0,5.9470024E0],"tree_param":{"num_deleted":"0","num_feature":"4","num_nodes":"89","size_leaf_vector":"0"}},{"base_weights":[-4.458268E-1,-5.1543945E-1,-3.2236823E-1,-5.498313E-1,-4.619729E-1,4.3871152E-1,-3.5957712E-1,6.8155475E-2,-4.7548968E-1,7.341433E-2,5.8037513E-1,-4.6971616E-1,-2.865325E-1,-3.8390543E-2,-4.951002E-1,-2.347466E-1,-5.14806E-1,-2.7165872E-1,6.1351657E-1,-2.0478943E-1,-4.4420245E-1,2.0352124E-1,-2.2419856E-1,-5.245304E-1,2.2917047E-2],"categories":[],"categories_nodes":[],"categories_segments":[],"categories_sizes":[],"default_left":[1,1,1,0,1,1,1,0,0,0,0,1,1,0,0,1,0,1,0,1,1,0,0,0,0],"id":18,"left_children":[1,3,5,-1,7,9,11,-1,-1,-1,-1,13,15,-1,-1,17,-1,19,-1,21,23,-1,-1,-1,-1],"loss_changes":[1.7971992E0,1.15356445E-2,2.5659418E0,0E0,4.8231888E-1,1.858207E-1,5.220823E-1,0E0,0E0,0E0,0E0,3.202238E-1,4.8961258E-1,0E0,0E0,1.5421653E0,0E0,4.0275097E-1,0E0,3.0473363E-1,4.2838812E-1,0E0,0E0,0E0,0E0],"parents":[2147483647,0,0,1,1,2,2,4,4,5,5,6,6,11,11,12,12,15,15,17,17,19,19,20,20],"right_children":[2,4,6,-1,8,10,12,-1,-1,-1,-1,14,16,-1,-1,18,-1,20,-1,22,24,-1,-1,-1,-1],"split_conditions":[-1.9342145E-1,-1.979484E-1,-1.9253576E-1,-5.4983128E-2,-1.9784999E-1,-1.9302781E-1,-1.8003745E-1,6.8155476E-3,-4.754897E-2,7.3414333E-3,5.8037516E-2,-1.9194528E-1,3.2486406E-1,-3.8390544E-3,-4.951002E-2,9.630276E-2,-5.14806E-2,-1.042604E-1,6.1351657E-2,-1.7934857E-1,3.4992233E-2,2.0352123E-2,-2.2419857E-2,-5.245304E-2,2.2917048E-3],"split_indices":[0,0,0,0,0,0,0,0,0,0,0,0,0,0,0,0,0,0,0,0,0,0,0,0,0],"split_type":[0,0,0,0,0,0,0,0,0,0,0,0,0,0,0,0,0,0,0,0,0,0,0,0,0],"sum_hessian":[2.2744972E2,1.434115E2,8.403823E1,8.1624016E1,6.1787483E1,3.4141357E0,8.062409E1,1.4357332E0,6.035175E1,1.3782856E0,2.03585E0,2.9983482E1,5.064061E1,1.8061277E0,2.8177355E1,4.2929928E1,7.710685E0,4.1791134E1,1.1387913E0,3.169473E1,1.0096404E1,1.0077983E0,3.0686932E1,8.510071E0,1.5863336E0],"tree_param":{"num_deleted":"0","num_feature":"4","num_nodes":"25","size_leaf_vector":"0"}},{"base_weights":[9.9233156E-1,1.1055578E0,-1.4311238E-1,9.5498013E-1,1.362998E0,1.478893E-1,-5.40403E-1,1.1107789E0,8.705957E-1,1.418743E0,7.220147E-1,-6.480146E-2,4.545871E-1,9.991679E-1,1.4357857E0,6.0304916E-1,9.132927E-1,-1.04972936E-1,1.1300181E0,2.0149101E-1,-1.4383578E-1,1.0326464E0,-8.727575E-2,1.4256797E0,8.504579E-1,5.328545E-1,-4.870636E-1,1.3215828E0,9.637778E-2,6.0371935E-1,-3.1056798E-1,-2.5876945E-1,1.4998381E-1,2.751276E-1,-4.036072E-1,5.4514754E-1,9.431481E-1,6.791241E-2,-4.7024885E-1,-3.061515E-1,4.786978E-1,6.9234926E-1,1.0238799E-1,1.1541265E0,8.398737E-1,-3.583471E-1,4.6984312E-1],"categories":[],"categories_nodes":[],"categories_segments":[],"categories_sizes":[],"default_left":[1,1,1,1,1,1,0,1,1,0,1,1,1,0,0,0,1,1,1,1,1,0,1,0,1,0,0,0,0,0,0,1,1,0,0,1,1,1,0,0,0,0,0,0,0,0,0],"id":19,"left_children":[1,3,5,7,9,11,-1,13,15,-1,17,19,21,-1,-1,-1,23,25,27,29,31,-1,33,-1,35,-1,-1,-1,-1,-1,-1,37,39,-1,-1,41,43,45,-1,-1,-1,-1,-1,-1,-1,-1,-1],"loss_changes":[4.4629944E1,1.089624E1,3.8086705E0,1.6870575E0,3.0413818E0,1.2950525E0,0E0,1.0067444E0,9.9799347E-1,0E0,3.877481E0,2.8851926E-1,2.617795E0,0E0,0E0,0E0,2.4892044E0,1.379466E0,1.3665714E0,8.545891E-1,3.796463E-1,0E0,6.942539E-1,0E0,2.4542542E0,0E0,0E0,0E0,0E0,0E0,0E0,5.58506E-1,6.669897E-1,0E0,0E0,1.6756935E0,7.5405884E-1,8.3122325E-1,0E0,0E0,0E0,0E0,0E0,0E0,0E0,0E0,0E0],"parents":[2147483647,0,0,1,1,2,2,3,3,4,4,5,5,7,7,8,8,10,10,11,11,12,12,16,16,17,17,18,18,19,19,20,20,22,22,24,24,31,31,32,32,35,35,36,36,37,37],"right_children":[2,4,6,8,10,12,-1,14,16,-1,18,20,22,-1,-1,-1,24,26,28,30,32,-1,34,-1,36,-1,-1,-1,-1,-1,-1,38,40,-1,-1,42,44,46,-1,-1,-1,-1,-1,-1,-1,-1,-1],"split_conditions":[-1.4997266E-1,1.5E0,-2.5334172E-2,-1.9883409E-1,-1.7836446E-1,-1.0303026E-1,-5.40403E-2,-1.9952297E-1,-1.9863728E-1,1.418743E-1,-1.745756E-1,5E-1,-7.650828E-2,9.991679E-2,1.4357857E-1,6.0304917E-2,-1.980468E-1,-1.7693749E-1,-1.5882972E-1,-1.2866652E-1,-1.2074437E-1,1.03264645E-1,1.5E0,1.4256798E-1,-1.9661984E-1,5.328545E-2,-4.870636E-2,1.3215828E-1,9.637779E-3,6.0371935E-2,-3.1056797E-2,1.5E0,1.5E0,2.7512759E-2,-4.036072E-2,-1.9681665E-1,-1.9440557E-1,-1.4519969E-1,-4.7024887E-2,-3.061515E-2,4.7869783E-2,6.923493E-2,1.0238799E-2,1.1541265E-1,8.398737E-2,-3.583471E-2,4.698431E-2],"split_indices":[0,1,0,0,0,0,0,0,0,0,0,1,0,0,0,0,0,0,0,0,0,0,1,0,0,0,0,0,0,0,0,1,1,0,0,0,0,0,0,0,0,0,0,0,0,0,0],"split_type":[0,0,0,0,0,0,0,0,0,0,0,0,0,0,0,0,0,0,0,0,0,0,0,0,0,0,0,0,0,0,0,0,0,0,0,0,0,0,0,0,0,0,0,0,0,0,0],"sum_hessian":[3.449165E2,3.1366428E2,3.1252213E1,2.00879E2,1.1278528E2,1.8401503E1,1.285071E1,6.630214E1,1.3457687E2,1.0264507E2,1.0140209E1,1.13317795E1,7.069723E0,5.2386364E1,1.3915772E1,2.0602448E1,1.1397442E2,3.595386E0,6.5448227E0,2.238873E0,9.092906E0,2.982383E0,4.08734E0,1.008084E1,1.0389358E2,1.1991154E0,2.3962708E0,5.286503E0,1.2583196E0,1.1536578E0,1.0852153E0,6.621902E0,2.471004E0,1.9656544E0,2.1216855E0,2.579834E1,7.809524E1,2.8689592E0,3.7529428E0,1.0636642E0,1.4073398E0,1.8938313E1,6.860027E0,2.2320845E1,5.5774395E1,1.4449657E0,1.4239936E0],"tree_param":{"num_deleted":"0","num_feature":"4","num_nodes":"47","size_leaf_vector":"0"}},{"base_weights":[-1.2568595E-1,-3.6751842E-1,2.770798E-1,-4.5747086E-1,-2.4736042E-1,4.8476803E-1,-8.8325725E-4,3.518775E-2,-4.7510037E-1,3.6362242E-2,-4.5085624E-1,3.5217455E-1,8.698607E-1,1.1173213E-1,-5.075972E-1,1.5447636E-1,-6.187306E-2,-4.1418505E-1,-5.6236094E-1,-2.0352006E-1,4.119062E-1,-3.6256662E-1,-5.1174396E-1,4.8503914E-1,-4.470076E-2,2.4697322E-3,9.303991E-1,-4.764709E-1,-1.9704868E-1,6.777584E-1,-4.2498645E-1,6.4941746E-1,3.0776376E-1,-1.8287653E-1,-4.6041E-1,4.005927E-1,1.4446295E0,-3.6914805E-1,3.9244276E-2,-1.8964702E-1,1.0344411E-1,-2.3342423E-2,-4.7464737E-1,1.4845277E-1,8.207611E-1,2.030049E-1,4.700775E-1,-4.248077E-1,-1.612046E-2,4.4261912E-1,-3.4154594E-1,2.6533988E-1,-9.846632E-2,-5.3483415E-2,-4.3695137E-1,5.348634E-1,-4.724411E-2,7.254891E-2,-1.8520278E-1,-9.518412E-2,1.9798948E-1,3.4797928E-1,8.157654E-1,-1.8769696E-2,4.7750086E-1,-3.7616718E-1,5.6946307E-2,-2.037627E-1,3.24804E-1,1.047001E-1,8.675826E-1,-4.7360066E-1,1.2254743E-1],"categories":[],"categories_nodes":[],"categories_segments":[],"categories_sizes":[],"default_left":[1,1,1,1,1,1,1,1,1,1,1,1,0,1,0,0,0,1,0,1,1,1,0,1,1,1,0,0,1,1,0,0,1,1,0,1,0,0,1,1,1,1,0,0,0,0,0,0,1,1,0,1,1,1,0,1,1,0,0,0,0,0,0,0,0,0,0,0,0,0,0,0,0],"id":20,"left_children":[1,3,5,7,9,11,13,15,17,19,21,23,-1,25,-1,-1,-1,27,-1,29,31,33,-1,35,37,39,-1,-1,41,43,-1,-1,45,47,-1,49,-1,-1,51,53,55,57,-1,-1,-1,-1,-1,-1,59,61,-1,63,65,67,-1,69,71,-1,-1,-1,-1,-1,-1,-1,-1,-1,-1,-1,-1,-1,-1,-1,-1],"loss_changes":[2.5247913E1,1.6350269E0,5.624834E0,8.098583E-1,4.140051E0,2.5410128E0,2.4912028E0,5.6866307E-2,2.3608589E-1,2.8545408E0,3.8445473E-2,2.2976246E0,0E0,3.193254E0,0E0,0E0,0E0,6.601839E-1,0E0,4.081675E0,1.0484123E-1,2.7510905E-1,0E0,2.0484643E0,3.342627E-1,6.5048414E-1,0E0,0E0,6.704574E-1,2.0279992E-1,0E0,0E0,8.2511306E-2,3.5074916E-1,0E0,1.1237235E0,0E0,0E0,3.4469482E-1,3.6579385E-1,1.4531398E0,1.6469474E-1,0E0,0E0,0E0,0E0,0E0,0E0,1.2526649E-1,7.736721E-1,0E0,2.5872526E-1,3.2732618E-1,5.5466497E-1,0E0,7.345419E-1,1.3029621E0,0E0,0E0,0E0,0E0,0E0,0E0,0E0,0E0,0E0,0E0,0E0,0E0,0E0,0E0,0E0,0E0],"parents":[2147483647,0,0,1,1,2,2,3,3,4,4,5,5,6,6,7,7,8,8,9,9,10,10,11,11,13,13,17,17,19,19,20,20,21,21,23,23,24,24,25,25,28,28,29,29,32,32,33,33,35,35,38,38,39,39,40,40,41,41,48,48,49,49,51,51,52,52,53,53,55,55,56,56],"right_children":[2,4,6,8,10,12,14,16,18,20,22,24,-1,26,-1,-1,-1,28,-1,30,32,34,-1,36,38,40,-1,-1,42,44,-1,-1,46,48,-1,50,-1,-1,52,54,56,58,-1,-1,-1,-1,-1,-1,60,62,-1,64,66,68,-1,70,72,-1,-1,-1,-1,-1,-1,-1,-1,-1,-1,-1,-1,-1,-1,-1,-1],"split_conditions":[-1.9233893E-1,-1.980468E-1,1.5E0,-2.0070392E-1,-1.963738E-1,-1.4711872E-1,2.9721403E0,-2.0109758E-1,-1.9903092E-1,-1.9716111E-1,1.5E0,-1.7152484E-1,8.698607E-2,5.413332E-2,-5.075972E-2,1.5447636E-2,-6.1873063E-3,-1.9932616E-1,-5.6236096E-2,-1.9784999E-1,-1.9676745E-1,-1.9499604E-1,-5.11744E-2,-1.728534E-1,-1.7054072E-1,-1.8040158E-1,9.3039915E-2,-4.764709E-2,1E0,-1.979484E-1,-4.2498644E-2,6.494175E-2,1E0,-1.9588175E-1,-4.6041E-2,-1.7423116E-1,1.4446296E-1,-3.6914807E-2,-1.6547251E-1,-1.8648341E-1,-1.7383751E-1,-1.9912934E-1,-4.746474E-2,1.4845277E-2,8.207611E-2,2.030049E-2,4.700775E-2,-4.248077E-2,-1.954881E-1,-1.8003745E-1,-3.4154594E-2,-1.6812962E-1,-1.5769799E-1,-1.8810722E-1,-4.3695137E-2,-1.7575654E-1,-1.5833767E-1,7.254891E-3,-1.8520279E-2,-9.518412E-3,1.9798947E-2,3.479793E-2,8.157654E-2,-1.8769697E-3,4.7750086E-2,-3.761672E-2,5.694631E-3,-2.037627E-2,3.24804E-2,1.047001E-2,8.675826E-2,-4.7360066E-2,1.2254744E-2],"split_indices":[0,0,1,0,0,0,0,0,0,0,1,0,0,0,0,0,0,0,0,0,0,0,0,0,0,0,0,0,1,0,0,0,1,0,0,0,0,0,0,0,0,0,0,0,0,0,0,0,0,0,0,0,0,0,0,0,0,0,0,0,0,0,0,0,0,0,0,0,0,0,0,0,0],"split_type":[0,0,0,0,0,0,0,0,0,0,0,0,0,0,0,0,0,0,0,0,0,0,0,0,0,0,0,0,0,0,0,0,0,0,0,0,0,0,0,0,0,0,0,0,0,0,0,0,0,0,0,0,0,0,0,0,0,0,0,0,0,0,0,0,0,0,0,0,0,0,0,0,0],"sum_hessian":[2.5716843E2,1.607418E2,9.642663E1,9.031966E1,7.042216E1,5.4764057E1,4.166257E1,3.0859704E0,8.723369E1,2.9756153E1,4.0666E1,4.2161655E1,1.2602403E1,3.472464E1,6.9379325E0,1.1190751E0,1.9668952E0,5.475591E1,3.2477776E1,1.843725E1,1.1318903E1,1.9436693E1,2.122931E1,3.142062E1,1.0741035E1,3.1520773E1,3.2038655E0,4.162219E1,1.3133719E1,3.2890103E0,1.5148239E1,1.8542268E0,9.464676E0,7.8638153E0,1.1572878E1,3.0181988E1,1.238631E0,1.5094643E0,9.231571E0,1.0556846E1,2.0963928E1,8.745405E0,4.3883142E0,1.1331004E0,2.1559098E0,7.1200323E0,2.3446436E0,2.5772455E0,5.2865696E0,2.8946379E1,1.235609E0,3.1435852E0,6.087986E0,7.592659E0,2.9641864E0,4.766888E0,1.6197039E1,5.8383546E0,2.9070504E0,4.2665267E0,1.0200431E0,2.4631681E1,4.3146977E0,1.7336055E0,1.4099798E0,1.674839E0,4.413147E0,5.764139E0,1.8285198E0,2.6523802E0,2.1145082E0,4.1035295E0,1.209351E1],"tree_param":{"num_deleted":"0","num_feature":"4","num_nodes":"73","size_leaf_vector":"0"}},{"base_weights":[-4.5599845E-1,-5.7753295E-1,1.4928612E0],"categories":[],"categories_nodes":[],"categories_segments":[],"categories_sizes":[],"default_left":[1,0,0],"id":21,"left_children":[1,-1,-1],"loss_changes":[5.5624107E1,0E0,0E0],"parents":[2147483647,0,0],"right_children":[2,-1,-1],"split_conditions":[5E-1,-5.7753295E-2,1.4928612E-1],"split_indices":[2,0,0],"split_type":[0,0,0],"sum_hessian":[2.302057E2,2.1735472E2,1.2850989E1],"tree_param":{"num_deleted":"0","num_feature":"4","num_nodes":"3","size_leaf_vector":"0"}},{"base_weights":[-5.6920624E-1,-5.7763195E-1,-3.0545625E-1,5.3291017E-1,-5.0708383E-1],"categories":[],"categories_nodes":[],"categories_segments":[],"categories_sizes":[],"default_left":[1,0,1,0,0],"id":22,"left_children":[1,-1,3,-1,-1],"loss_changes":[3.306198E-1,0E0,1.8229709E0,0E0,0E0],"parents":[2147483647,0,0,2,2],"right_children":[2,-1,4,-1,-1],"split_conditions":[1.4246154E0,-5.7763197E-2,4.269158E0,5.329102E-2,-5.0708383E-2],"split_indices":[0,0,0,0,0],"split_type":[0,0,0,0,0],"sum_hessian":[2.2717151E2,2.1898575E2,8.185761E0,1.2684617E0,6.9172993E0],"tree_param":{"num_deleted":"0","num_feature":"4","num_nodes":"5","size_leaf_vector":"0"}},{"base_weights":[1.1490336E-1,3.401226E-1,-2.1128309E-1,5.085652E-1,-9.660485E-3,-3.398107E-1,1.3454267E-1,-4.079239E-1,5.3273016E-1,-5.256548E-2,3.2291293E-1,5.8495E-1,-3.8164824E-1,3.808441E-1,-2.8847742E-1,5.000168E-1,9.2223835E-1,2.5921337E-2,-3.3871347E-1,6.687894E-1,-3.7328014E-1,-1.9961061E-2,1.0992578E0,-4.338518E-1,-2.171821E-1,-1.7725702E-1,7.4608356E-1,-2.9619297E-2,-4.9027E-1,5.481872E-1,-4.744803E-1,-3.520806E-2,5.5384487E-1,-2.0683935E-1,-4.6025354E-1,-3.5338426E-1,-5.209136E-1,3.2071772E-1,-3.686365E-1,-3.1696963E-1,8.658532E-2,4.479256E-2,8.33989E-1,-4.3757612E-1,3.552392E-1,4.8798352E-1,9.184949E-1,5.57726E-2,-3.7816942E-1,-3.1079605E-1,1.7288819E-1,-4.699821E-1,-9.324551E-2,-6.729199E-2,6.1077833E-1,-4.5098302E-1,-1.1754177E-1,1.6770266E-1,-4.6557358E-1,9.660073E-3,1.3815996E-1,1.250664E0,6.3046557E-1,5.215778E-1,5.3492825E-2,5.844181E-1,-5.078377E-1,-7.84747E-2,4.73672E-1,-4.6129927E-1,-1.8687819E-1,-5.374208E-1,-3.310035E-1,2.116336E-1,-1.9137675E-1,3.212974E-1,-4.3420118E-1,9.50187E-2,1.029633E0],"categories":[],"categories_nodes":[],"categories_segments":[],"categories_sizes":[],"default_left":[1,1,1,1,1,1,1,0,1,1,1,1,1,1,1,1,0,1,1,0,0,0,0,1,1,1,1,1,0,1,0,1,0,1,0,1,0,1,1,1,1,0,1,0,1,1,0,1,1,0,0,1,1,0,0,0,1,0,0,0,0,0,1,0,0,0,0,0,0,0,0,0,0,0,0,0,0,0,0],"id":23,"left_children":[1,3,5,7,9,11,13,-1,15,17,19,21,23,25,27,29,-1,31,33,-1,-1,-1,-1,35,37,39,41,43,-1,45,-1,47,-1,49,-1,51,-1,53,55,57,59,-1,61,-1,63,65,-1,67,69,-1,-1,71,73,-1,-1,-1,75,-1,-1,-1,-1,-1,77,-1,-1,-1,-1,-1,-1,-1,-1,-1,-1,-1,-1,-1,-1,-1,-1],"loss_changes":[1.9425375E1,9.209415E0,4.8558726E0,2.553028E0,7.5554323E-1,3.2867212E0,3.239618E0,0E0,8.5370636E-1,1.0577354E0,1.707551E0,1.2110171E0,5.61368E-1,4.089997E0,5.926066E-1,4.831217E0,0E0,1.2323099E0,6.7074895E-2,0E0,0E0,0E0,0E0,2.1495056E-1,1.7801538E0,3.4033927E-1,6.979518E-1,1.1219412E0,0E0,1.6308136E0,0E0,1.1013808E0,0E0,3.171104E-1,0E0,9.4831514E-1,0E0,6.0571307E-1,2.8574252E-1,4.9323475E-1,1.3440378E-2,0E0,1.0552168E-1,0E0,1.5878898E-1,8.204781E0,0E0,1.6211624E0,3.1266212E-2,0E0,0E0,3.1482697E-2,3.807007E-1,0E0,0E0,0E0,8.896971E-1,0E0,0E0,0E0,0E0,0E0,1.8469923E0,0E0,0E0,0E0,0E0,0E0,0E0,0E0,0E0,0E0,0E0,0E0,0E0,0E0,0E0,0E0,0E0],"parents":[2147483647,0,0,1,1,2,2,3,3,4,4,5,5,6,6,8,8,9,9,10,10,11,11,12,12,13,13,14,14,15,15,17,17,18,18,23,23,24,24,25,25,26,26,27,27,29,29,31,31,33,33,35,35,37,37,38,38,39,39,40,40,42,42,44,44,45,45,47,47,48,48,51,51,52,52,56,56,62,62],"right_children":[2,4,6,8,10,12,14,-1,16,18,20,22,24,26,28,30,-1,32,34,-1,-1,-1,-1,36,38,40,42,44,-1,46,-1,48,-1,50,-1,52,-1,54,56,58,60,-1,62,-1,64,66,-1,68,70,-1,-1,72,74,-1,-1,-1,76,-1,-1,-1,-1,-1,78,-1,-1,-1,-1,-1,-1,-1,-1,-1,-1,-1,-1,-1,-1,-1,-1],"split_conditions":[5E-1,-1.9661984E-1,-1.4997266E-1,-2.0075312E-1,-1.6926137E-1,-2.003595E-1,3.3958912E-2,-4.079239E-2,-1.9681665E-1,-1.8318662E-1,-1.3575217E-1,-2.0056614E-1,-1.8820563E-1,1.5E0,4.269158E0,-1.9755474E-1,9.222384E-2,-1.8515486E-1,-1.753629E-1,6.687894E-2,-3.7328016E-2,-1.9961062E-3,1.09925784E-1,-1.9563572E-1,-1.8308821E-1,-8.377108E-2,-1.3668707E-1,1.9555101E-1,-4.9027E-2,-1.9780079E-1,-4.744803E-2,-1.9155163E-1,5.5384487E-2,-1.7826605E-1,-4.6025354E-2,-1.9775157E-1,-5.209136E-2,-1.8648341E-1,-1.6212651E-1,-1.4618382E-1,-3.886579E-2,4.479256E-3,-1.2620622E-1,-4.3757614E-2,1.2007287E0,-1.9824363E-1,9.184949E-2,-1.9258496E-1,-1.8825483E-1,-3.1079605E-2,1.7288819E-2,-1.9878489E-1,-1.9760396E-1,-6.729199E-3,6.1077833E-2,-4.50983E-2,-1.5769799E-1,1.6770266E-2,-4.655736E-2,9.660073E-4,1.3815996E-2,1.250664E-1,-7.508132E-2,5.215778E-2,5.3492826E-3,5.8441814E-2,-5.0783772E-2,-7.84747E-3,4.73672E-2,-4.6129927E-2,-1.868782E-2,-5.374208E-2,-3.3100348E-2,2.116336E-2,-1.9137675E-2,3.2129742E-2,-4.3420117E-2,9.50187E-3,1.02963306E-1],"split_indices":[1,0,0,0,0,0,0,0,0,0,0,0,0,1,0,0,0,0,0,0,0,0,0,0,0,0,0,0,0,0,0,0,0,0,0,0,0,0,0,0,0,0,0,0,0,0,0,0,0,0,0,0,0,0,0,0,0,0,0,0,0,0,0,0,0,0,0,0,0,0,0,0,0,0,0,0,0,0,0],"split_type":[0,0,0,0,0,0,0,0,0,0,0,0,0,0,0,0,0,0,0,0,0,0,0,0,0,0,0,0,0,0,0,0,0,0,0,0,0,0,0,0,0,0,0,0,0,0,0,0,0,0,0,0,0,0,0,0,0,0,0,0,0,0,0,0,0,0,0,0,0,0,0,0,0,0,0,0,0,0,0],"sum_hessian":[2.6244406E2,1.5522467E2,1.07219406E2,1.0446449E2,5.0760178E1,7.818063E1,2.9038773E1,2.275673E0,1.0218882E2,4.5705673E1,5.0545044E0,2.8220334E0,7.5358604E1,1.8415903E1,1.06228695E1,9.6378105E1,5.8107142E0,3.6581295E1,9.124379E0,3.4031458E0,1.6513584E0,1.738481E0,1.0835526E0,5.595869E1,1.9399912E1,7.488241E0,1.0927663E1,5.1558113E0,5.467058E0,9.22553E1,4.1228056E0,3.36215E1,2.959797E0,5.6719675E0,3.4524112E0,3.1709728E1,2.4248962E1,4.0167136E0,1.5383198E1,4.7641287E0,2.7241123E0,1.3853323E0,9.542331E0,2.4363053E0,2.7195058E0,8.134776E1,1.09075365E1,2.7234198E1,6.3872986E0,4.595423E0,1.0765442E0,2.1338745E1,1.0370984E1,2.0467772E0,1.9699363E0,1.0984698E1,4.3985E0,1.087787E0,3.6763418E0,1.5698833E0,1.1542289E0,1.4430013E0,8.099329E0,1.2834628E0,1.4360431E0,7.454227E1,6.805492E0,2.1227293E1,6.006905E0,3.4684877E0,2.918811E0,1.2436877E1,8.901868E0,2.2436523E0,8.127331E0,1.8374469E0,2.5610533E0,3.987928E0,4.111401E0],"tree_param":{"num_deleted":"0","num_feature":"4","num_nodes":"79","size_leaf_vector":"0"}},{"base_weights":[-4.4511688E-1,-5.2911717E-1,-3.0828515E-1,-5.524118E-1,-4.2365244E-1,1.6113295E-1,-3.6308032E-1,-1.6483141E-1,-5.067632E-1,-5.3639118E-2,4.5706353E-1,-5.226023E-1,-2.6888448E-1,-2.8452528E-1,2.4716025E-2,-1.163138E-1,1.2275377E-1,8.12479E-1,-3.1015305E-2,-2.156108E-1,-5.098206E-1,-2.5098214E-1,5.893163E-1,-2.0215872E-1,-4.9681106E-1,-2.8146735E-1,-4.6389416E-2],"categories":[],"categories_nodes":[],"categories_segments":[],"categories_sizes":[],"default_left":[1,1,1,0,1,1,1,1,0,1,1,0,1,0,0,0,0,0,0,1,0,1,0,1,0,0,0],"id":24,"left_children":[1,3,5,-1,7,9,11,13,-1,15,17,-1,19,-1,-1,-1,-1,-1,-1,21,-1,23,-1,25,-1,-1,-1],"loss_changes":[2.4539452E0,1.0914612E-1,2.3478909E0,0E0,5.5236673E-1,6.5985274E-1,1.0617256E0,2.0367557E-1,0E0,8.820918E-2,7.726616E-1,0E0,5.622065E-1,0E0,0E0,0E0,0E0,0E0,0E0,1.4181757E0,0E0,4.2092848E-1,0E0,4.5549047E-1,0E0,0E0,0E0],"parents":[2147483647,0,0,1,1,2,2,4,4,5,5,6,6,7,7,9,9,10,10,12,12,19,19,21,21,23,23],"right_children":[2,4,6,-1,8,10,12,14,-1,16,18,-1,20,-1,-1,-1,-1,-1,-1,22,-1,24,-1,26,-1,-1,-1],"split_conditions":[-1.9411033E-1,-1.9588175E-1,-1.9194528E-1,-5.524118E-2,-1.9538969E-1,-1.9297859E-1,-1.8003745E-1,1E0,-5.0676323E-2,1.5E0,-1.9253576E-1,-5.226023E-2,3.2486406E-1,-2.8452529E-2,2.4716025E-3,-1.163138E-2,1.2275377E-2,8.12479E-2,-3.1015305E-3,1.0614394E-1,-5.0982058E-2,-5.3824376E-2,5.893163E-2,-1.4800444E-1,-4.968111E-2,-2.8146734E-2,-4.6389415E-3],"split_indices":[0,0,0,0,0,0,0,1,0,1,0,0,0,0,0,0,0,0,0,0,0,0,0,0,0,0,0],"split_type":[0,0,0,0,0,0,0,0,0,0,0,0,0,0,0,0,0,0,0,0,0,0,0,0,0,0,0],"sum_hessian":[2.2669162E2,1.3868607E2,8.8005554E1,1.1012432E2,2.8561739E1,8.996225E0,7.900933E1,7.6674075E0,2.0894333E1,5.68736E0,3.3088658E0,2.7644659E1,5.136467E1,4.3925557E0,3.2748518E0,4.44765E0,1.2397097E0,1.5300484E0,1.7788174E0,4.3615646E1,7.749023E0,4.2438923E1,1.1767237E0,3.6927254E1,5.511668E0,2.3934338E1,1.2992918E1],"tree_param":{"num_deleted":"0","num_feature":"4","num_nodes":"27","size_leaf_vector":"0"}},{"base_weights":[8.6882496E-1,9.56745E-1,-1.6672686E-1,8.4195435E-1,1.153459E0,3.0654766E-2,-5.207231E-1,9.8787236E-1,7.6443523E-1,1.2083439E0,3.5763472E-1,-3.9620322E-1,9.943005E-2,4.1858712E-1,8.23769E-1,2.5227743E-1,1.2320906E0,-4.5234635E-1,6.3920385E-1,-3.6326677E-1,1.6689113E-1,1.2147417E0,7.6615065E-1,7.341591E-1,-3.7524104E-1,1.2491666E0,7.313913E-1,1.0702934E0,2.4329709E-1,2.7445582E-1,-3.7303954E-2,4.9333173E-1,8.4096956E-1,1.4071078E-2,9.278641E-1,3.4549892E-1,9.221416E-3,9.17177E-2,5.883801E-1,-3.7856376E-1,1.7448062E-1,6.430133E-1,2.0465912E-2,1.096386E0,7.1955824E-1,2.137672E-2,5.2676356E-1,4.992472E-1,-6.796902E-2,5.197639E-1,-1.1718131E-1],"categories":[],"categories_nodes":[],"categories_segments":[],"categories_sizes":[],"default_left":[1,1,1,1,1,1,0,0,1,1,1,0,1,0,1,1,1,0,1,0,1,0,1,0,0,0,1,0,1,1,1,1,1,0,0,1,0,1,0,0,1,0,0,0,0,0,0,0,0,0,0],"id":25,"left_children":[1,3,5,7,9,11,-1,-1,13,15,17,-1,19,-1,21,23,25,-1,27,-1,29,-1,31,-1,-1,-1,33,-1,35,37,39,41,43,-1,-1,45,-1,47,-1,-1,49,-1,-1,-1,-1,-1,-1,-1,-1,-1,-1],"loss_changes":[3.3232544E1,6.592926E0,2.0617661E0,1.6795044E0,4.841522E0,6.189729E-1,0E0,0E0,2.6303635E0,2.2439423E0,2.389624E0,0E0,6.163027E-1,0E0,1.8339005E0,1.4804181E0,2.2949219E-2,0E0,9.767368E-1,0E0,3.6654288E-1,0E0,1.8236389E0,0E0,0E0,0E0,8.3610487E-1,0E0,1.18168175E-1,5.624164E-1,5.341935E-1,1.8286347E0,1.8359642E0,0E0,0E0,1.9458163E-1,0E0,5.5299187E-1,0E0,0E0,5.323521E-1,0E0,0E0,0E0,0E0,0E0,0E0,0E0,0E0,0E0,0E0],"parents":[2147483647,0,0,1,1,2,2,3,3,4,4,5,5,8,8,9,9,10,10,12,12,14,14,15,15,16,16,18,18,20,20,22,22,26,26,28,28,29,29,30,30,31,31,32,32,35,35,37,37,40,40],"right_children":[2,4,6,8,10,12,-1,-1,14,16,18,-1,20,-1,22,24,26,-1,28,-1,30,-1,32,-1,-1,-1,34,-1,36,38,40,42,44,-1,-1,46,-1,48,-1,-1,50,-1,-1,-1,-1,-1,-1,-1,-1,-1,-1],"split_conditions":[-1.4800444E-1,1.5E0,4.0503293E-2,-1.9873568E-1,-1.7575654E-1,5E-1,-5.2072313E-2,9.878724E-2,-1.9863728E-1,-2.003595E-1,-1.745756E-1,-3.962032E-2,-1.4013147E-1,4.1858714E-2,-1.980468E-1,-2.0056614E-1,-1.8069682E-1,-4.5234635E-2,-1.6330746E-1,-3.6326677E-2,-7.508132E-2,1.2147417E-1,-1.9661984E-1,7.341591E-2,-3.7524104E-2,1.24916665E-1,-1.7998825E-1,1.0702934E-1,-1.5833767E-1,-8.846532E-2,-5.3824376E-2,-1.9681665E-1,-1.9440557E-1,1.4071078E-3,9.278641E-2,-1.6127771E-1,9.221416E-4,-1.3122523E-1,5.883801E-2,-3.7856378E-2,1.5E0,6.4301334E-2,2.0465914E-3,1.09638594E-1,7.195582E-2,2.137672E-3,5.2676357E-2,4.992472E-2,-6.7969016E-3,5.197639E-2,-1.1718131E-2],"split_indices":[0,1,0,0,0,1,0,0,0,0,0,0,0,0,0,0,0,0,0,0,0,0,0,0,0,0,0,0,0,0,0,0,0,0,0,0,0,0,0,0,1,0,0,0,0,0,0,0,0,0,0],"split_type":[0,0,0,0,0,0,0,0,0,0,0,0,0,0,0,0,0,0,0,0,0,0,0,0,0,0,0,0,0,0,0,0,0,0,0,0,0,0,0,0,0,0,0,0,0,0,0,0,0,0,0],"sum_hessian":[3.622567E2,3.3397757E2,2.8279154E1,2.1423985E2,1.1973772E2,1.8742239E1,9.536915E0,7.02539E1,1.4398595E2,1.11527725E2,8.2099905E0,1.9400936E0,1.6802147E1,2.2264442E1,1.2172151E2,2.9846983E0,1.0854303E2,1.9613414E0,6.248649E0,1.5800675E0,1.5222078E1,1.3054806E1,1.086667E2,1.592133E0,1.3925651E0,1.03517784E2,5.025242E0,2.175942E0,4.072707E0,9.744724E0,5.4773545E0,2.5021662E1,8.364504E1,1.3108734E0,3.7143683E0,2.5035822E0,1.5691249E0,6.9760613E0,2.7686625E0,1.7959498E0,3.6814048E0,1.8732294E1,6.2893677E0,2.4362534E1,5.928251E1,1.2989105E0,1.2046717E0,1.3653063E0,5.6107554E0,1.3276237E0,2.353781E0],"tree_param":{"num_deleted":"0","num_feature":"4","num_nodes":"51","size_leaf_vector":"0"}},{"base_weights":[-1.4716247E-1,-3.5738993E-1,1.8528253E-1,-4.632479E-1,-2.2163074E-1,4.1629568E-1,-1.2351356E-1,-3.939384E-1,-5.579277E-1,5.6328773E-2,-4.548995E-1,2.3910648E-1,8.307709E-1,-2.6191093E-2,-5.060858E-1,-3.3362195E-1,-5.366185E-1,-2.1762909E-1,3.8465753E-1,3.7679443E-1,-2.2832644E-1,8.775769E-1,1.1653193E-1,-2.2493526E-1,2.6538798E-1,-5.523645E-3,-3.4850442E-1,8.634302E-1,-4.1542706E-1,2.1142903E-1,7.949907E-1,6.9134486E-1,2.2395508E-1,-4.3891546E-1,-8.63517E-2,-9.4943844E-2,-4.9923518E-1,7.59162E-1,1.4135109E-1,-3.710656E-1,-1.7648354E-1,3.004629E-1,-1.0610402E-1,3.633678E-1,1.3489599E0,-3.1098557E-1,3.7381646E-1,9.179566E-2,-3.8966015E-1,-1.8810447E-1,5.082359E-1,-4.257553E-1,3.1208354E-1,-3.008442E-1,1.1690318E-1,-4.288514E-1,-7.7834256E-2,9.2922556E-1,2.4447438E-1,-1.4143363E-1,3.5880747E-1,1.1767834E-1,-2.715515E-1,8.1861794E-2,4.5853487E-1],"categories":[],"categories_nodes":[],"categories_segments":[],"categories_sizes":[],"default_left":[1,1,1,1,1,1,1,1,0,1,0,1,1,1,0,1,0,1,1,1,1,0,0,1,1,0,1,0,0,1,0,1,1,0,1,1,0,0,1,0,0,0,1,0,0,1,1,1,0,1,0,0,1,0,0,0,0,0,0,0,0,0,0,0,0],"id":26,"left_children":[1,3,5,7,9,11,13,15,-1,17,-1,19,21,23,-1,25,-1,27,29,31,33,-1,-1,35,37,-1,39,-1,-1,41,-1,43,45,-1,47,49,-1,-1,51,-1,-1,-1,53,-1,-1,55,57,59,-1,61,-1,-1,63,-1,-1,-1,-1,-1,-1,-1,-1,-1,-1,-1,-1],"loss_changes":[1.695386E1,2.0295658E0,6.7759895E0,3.2125092E-1,4.364732E0,3.7784195E0,1.5174904E0,2.5990725E-1,0E0,2.9103587E0,0E0,2.6179464E0,4.263916E-1,2.020112E0,0E0,1.8603039E-1,0E0,4.158417E0,8.736508E-1,1.324264E0,2.4834564E-1,0E0,0E0,6.892183E-1,7.606132E-1,0E0,7.735777E-2,0E0,0E0,3.617311E-1,0E0,1.5763931E0,1.8947115E0,0E0,4.1203496E-1,9.526019E-1,0E0,0E0,1.3484633E0,0E0,0E0,0E0,1.782255E-1,0E0,0E0,1.15035E-1,1.0503738E0,3.7434378E-1,0E0,3.8767335E-1,0E0,0E0,3.072682E-1,0E0,0E0,0E0,0E0,0E0,0E0,0E0,0E0,0E0,0E0,0E0,0E0],"parents":[2147483647,0,0,1,1,2,2,3,3,4,4,5,5,6,6,7,7,9,9,11,11,12,12,13,13,15,15,17,17,18,18,19,19,20,20,23,23,24,24,26,26,29,29,31,31,32,32,34,34,35,35,38,38,42,42,45,45,46,46,47,47,49,49,52,52],"right_children":[2,4,6,8,10,12,14,16,-1,18,-1,20,22,24,-1,26,-1,28,30,32,34,-1,-1,36,38,-1,40,-1,-1,42,-1,44,46,-1,48,50,-1,-1,52,-1,-1,-1,54,-1,-1,56,58,60,-1,62,-1,-1,64,-1,-1,-1,-1,-1,-1,-1,-1,-1,-1,-1,-1],"split_conditions":[-1.9204369E-1,-1.980468E-1,1.5E0,-1.9912934E-1,-1.9617698E-1,-1.4923458E-1,2.9721403E0,5E-1,-5.5792775E-2,-1.9716111E-1,-4.548995E-2,-1.7152484E-1,9.2513904E-2,-1.5125202E-1,-5.0608583E-2,-2.0070392E-1,-5.366185E-2,-1.9784999E-1,1E0,-1.8992785E-1,-1.6812962E-1,8.775769E-2,1.1653193E-2,-1.745756E-1,-1.390647E-1,-5.523645E-4,-1.9922775E-1,8.634302E-2,-4.1542705E-2,-1.9661984E-1,7.949907E-2,-1.9076434E-1,-1.8608978E-1,-4.3891545E-2,-1.5223613E-1,-1.7575654E-1,-4.992352E-2,7.59162E-2,-1.18431695E-1,-3.710656E-2,-1.7648354E-2,3.004629E-2,-1.962754E-1,3.633678E-2,1.34896E-1,-1.8795961E-1,-1.8515486E-1,-1.5769799E-1,-3.8966015E-2,-1.903707E-1,5.0823588E-2,-4.257553E-2,-5.0379965E-2,-3.008442E-2,1.1690318E-2,-4.288514E-2,-7.7834255E-3,9.292256E-2,2.444744E-2,-1.4143363E-2,3.588075E-2,1.17678335E-2,-2.715515E-2,8.186179E-3,4.585349E-2],"split_indices":[0,0,1,0,0,0,0,1,0,0,0,0,0,0,0,0,0,0,1,0,0,0,0,0,0,0,0,0,0,0,0,0,0,0,0,0,0,0,0,0,0,0,0,0,0,0,0,0,0,0,0,0,0,0,0,0,0,0,0,0,0,0,0,0,0],"split_type":[0,0,0,0,0,0,0,0,0,0,0,0,0,0,0,0,0,0,0,0,0,0,0,0,0,0,0,0,0,0,0,0,0,0,0,0,0,0,0,0,0,0,0,0,0,0,0,0,0,0,0,0,0,0,0,0,0,0,0,0,0,0,0,0,0],"sum_hessian":[2.4063495E2,1.4736871E2,9.3266235E1,8.1447716E1,6.5921E1,5.3153496E1,4.0112736E1,5.0003704E1,3.1444016E1,3.042525E1,3.5495747E1,3.833996E1,1.4813539E1,3.2829666E1,7.283071E0,3.7492443E1,1.2511261E1,1.676973E1,1.36555195E1,2.976595E1,8.574008E0,1.3687849E1,1.1256893E0,1.9658638E1,1.3171027E1,1.6863524E0,3.580609E1,2.0732465E0,1.4696484E1,1.066738E1,2.9881384E0,8.581492E0,2.1184456E1,2.610455E0,5.963553E0,1.4251125E1,5.407513E0,1.6163007E0,1.1554727E1,3.0631552E1,5.1745377E0,8.3733225E0,2.294058E0,6.7617235E0,1.8197691E0,4.400699E0,1.6783756E1,4.19625E0,1.7673031E0,1.2940604E1,1.3105206E0,2.328075E0,9.226652E0,1.0383177E0,1.2557404E0,2.3654933E0,2.035206E0,2.002133E0,1.4781624E1,2.4908519E0,1.705398E0,2.6863909E0,1.0254213E1,4.193474E0,5.0331783E0],"tree_param":{"num_deleted":"0","num_feature":"4","num_nodes":"65","size_leaf_vector":"0"}},{"base_weights":[-4.4833577E-1,-5.7173645E-1,1.3120784E0],"categories":[],"categories_nodes":[],"categories_segments":[],"categories_sizes":[],"default_left":[1,0,0],"id":27,"left_children":[1,-1,-1],"loss_changes":[4.8633904E1,0E0,0E0],"parents":[2147483647,0,0],"right_children":[2,-1,-1],"split_conditions":[5E-1,-5.7173647E-2,1.3120784E-1],"split_indices":[2,0,0],"split_type":[0,0,0],"sum_hessian":[2.194223E2,2.0567987E2,1.374243E1],"tree_param":{"num_deleted":"0","num_feature":"4","num_nodes":"3","size_leaf_vector":"0"}},{"base_weights":[-5.583161E-1,-5.669653E-1,-2.960535E-1,6.755633E-1,-5.0293136E-1],"categories":[],"categories_nodes":[],"categories_segments":[],"categories_sizes":[],"default_left":[1,0,1,0,0],"id":28,"left_children":[1,-1,3,-1,-1],"loss_changes":[3.238678E-1,0E0,2.1515424E0,0E0,0E0],"parents":[2147483647,0,0,2,2],"right_children":[2,-1,4,-1,-1],"split_conditions":[1.4246154E0,-5.669653E-2,4.269158E0,6.755633E-2,-5.0293136E-2],"split_indices":[0,0,0,0,0],"split_type":[0,0,0,0,0],"sum_hessian":[2.1577463E2,2.0776106E2,8.013566E0,1.0090362E0,7.00453E0],"tree_param":{"num_deleted":"0","num_feature":"4","num_nodes":"5","size_leaf_vector":"0"}},{"base_weights":[8.3806485E-2,2.8112474E-1,-2.1309473E-1,4.0065542E-1,-3.844983E-2,-3.6327028E-1,1.21345535E-1,1.8394345E-1,5.720468E-1,-3.128566E-1,6.590174E-2,1.9290492E-1,-3.8254544E-1,3.5018006E-1,-4.3323526E-1,2.7971298E-1,-2.4628453E-1,8.7464255E-1,3.7225214E-1,-3.835715E-2,-4.202948E-1,3.5957748E-1,-2.117072E-2,-3.355252E-1,-5.423361E-1,-7.4029966E-5,5.257689E-1,-1.307366E-1,-5.042024E-1,-4.2680547E-1,3.353446E-1,-2.882215E-1,5.31783E-1,1.1197523E-1,3.8851166E-1,-1.6220225E-1,3.246133E-1,-3.7585247E-1,3.906552E-1,3.627332E-1,-1.2752448E-1,-2.699491E-2,5.927833E-1,-3.3285314E-1,1.338584E-1,3.472715E-1,-4.9476928E-1,7.3654544E-1,3.6842212E-1,-5.1081803E-2,-4.7369918E-1,5.355085E-1,-3.561361E-1,-4.1456705E-1,-1.9129036E-1,5.4676812E-2,5.8629227E-1,-3.050054E-1,2.3723617E-1,9.8016167E-1,4.1135818E-1,-4.630993E-1,5.786066E-1,-3.1183997E-1,2.8015327E-1,2.0177217E-1,8.363959E-1,-3.115206E-1,-5.459341E-1,4.8137042E-1,-4.115808E-1,-4.2141187E-1,-7.134216E-2,-3.646381E-1,5.448106E-1],"categories":[],"categories_nodes":[],"categories_segments":[],"categories_sizes":[],"default_left":[1,1,1,1,1,1,1,1,1,1,1,0,1,1,1,1,0,0,1,0,0,1,1,1,0,1,1,1,0,0,0,1,1,0,0,1,1,1,1,0,1,0,1,0,0,0,0,0,1,1,0,1,0,1,1,0,0,1,0,0,1,0,0,0,0,0,0,0,0,0,0,0,0,0,0],"id":29,"left_children":[1,3,5,7,9,11,13,15,17,19,21,-1,23,25,27,29,-1,-1,31,-1,-1,33,35,37,-1,39,41,43,-1,-1,-1,45,47,-1,-1,49,51,53,55,-1,57,-1,59,-1,-1,-1,-1,-1,61,63,-1,65,-1,67,69,-1,-1,71,-1,-1,73,-1,-1,-1,-1,-1,-1,-1,-1,-1,-1,-1,-1,-1,-1],"loss_changes":[1.6013199E1,6.2809362E0,5.5331993E0,4.331888E0,1.3252752E0,8.8504505E-1,4.5449038E0,2.3033013E0,3.6785946E0,3.5921288E-1,8.728154E-1,0E0,3.7007332E-1,1.5411661E0,1.6075051E-1,1.9049337E0,0E0,0E0,4.539994E0,0E0,0E0,1.2328863E-2,1.3713914E0,1.8861027E0,0E0,4.7940665E-1,6.342983E-1,2.2405519E-1,0E0,0E0,0E0,1.3201056E0,8.6209965E-1,0E0,0E0,6.637366E-1,1.3632663E0,3.2637978E-1,2.0555902E-1,0E0,5.690348E-1,0E0,6.460886E-1,0E0,0E0,0E0,0E0,0E0,3.911755E0,1.4494346E0,0E0,4.9750066E-1,0E0,4.5364523E-1,1.9320438E0,0E0,0E0,1.22213006E-1,0E0,0E0,1.4300921E0,0E0,0E0,0E0,0E0,0E0,0E0,0E0,0E0,0E0,0E0,0E0,0E0,0E0,0E0],"parents":[2147483647,0,0,1,1,2,2,3,3,4,4,5,5,6,6,7,7,8,8,9,9,10,10,12,12,13,13,14,14,15,15,18,18,21,21,22,22,23,23,25,25,26,26,27,27,31,31,32,32,35,35,36,36,37,37,38,38,40,40,42,42,48,48,49,49,51,51,53,53,54,54,57,57,60,60],"right_children":[2,4,6,8,10,12,14,16,18,20,22,-1,24,26,28,30,-1,-1,32,-1,-1,34,36,38,-1,40,42,44,-1,-1,-1,46,48,-1,-1,50,52,54,56,-1,58,-1,60,-1,-1,-1,-1,-1,62,64,-1,66,-1,68,70,-1,-1,72,-1,-1,74,-1,-1,-1,-1,-1,-1,-1,-1,-1,-1,-1,-1,-1,-1],"split_conditions":[5E-1,-1.9504525E-1,-1.5833767E-1,-1.9873568E-1,-1.9253576E-1,-2.0036933E-1,2.8362954E-1,-1.996214E-1,-1.9863728E-1,-1.946024E-1,-1.9155163E-1,1.9290492E-2,-1.8308821E-1,1.5E0,4.269158E0,-2.0070392E-1,-2.4628453E-2,8.746426E-2,-1.9780079E-1,-3.8357151E-3,-4.202948E-2,-1.9184686E-1,-1.6965503E-1,-1.8648341E-1,-5.423361E-2,-1.4923458E-1,-1.4264098E-1,1.7911992E0,-5.0420243E-2,-4.2680547E-2,3.3534463E-2,-1.9824363E-1,-1.9755474E-1,1.1197523E-2,3.8851168E-2,-1.7885652E-1,-1.1454443E-1,-1.9396272E-1,-1.8510565E-1,3.627332E-2,-8.377108E-2,-2.699491E-3,-1.2620622E-1,-3.3285316E-2,1.338584E-2,3.4727152E-2,-4.947693E-2,7.365455E-2,-1.9681665E-1,-1.8515486E-1,-4.736992E-2,-1.5194091E-1,-3.561361E-2,-1.9657063E-1,-1.9204369E-1,5.467681E-3,5.8629226E-2,-1.09033376E-1,2.3723617E-2,9.8016165E-2,-1.1572537E-1,-4.630993E-2,5.786066E-2,-3.1183997E-2,2.8015329E-2,2.0177217E-2,8.363959E-2,-3.115206E-2,-5.459341E-2,4.8137043E-2,-4.115808E-2,-4.2141188E-2,-7.1342164E-3,-3.646381E-2,5.448106E-2],"split_indices":[1,0,0,0,0,0,0,0,0,0,0,0,0,1,0,0,0,0,0,0,0,0,0,0,0,0,0,0,0,0,0,0,0,0,0,0,0,0,0,0,0,0,0,0,0,0,0,0,0,0,0,0,0,0,0,0,0,0,0,0,0,0,0,0,0,0,0,0,0,0,0,0,0,0,0],"split_type":[0,0,0,0,0,0,0,0,0,0,0,0,0,0,0,0,0,0,0,0,0,0,0,0,0,0,0,0,0,0,0,0,0,0,0,0,0,0,0,0,0,0,0,0,0,0,0,0,0,0,0,0,0,0,0,0,0,0,0,0,0,0,0,0,0,0,0,0,0,0,0,0,0,0,0],"sum_hessian":[2.713147E2,1.630236E2,1.082911E2,1.1846162E2,4.4561985E1,7.467374E1,3.3617363E1,5.3229725E1,6.523189E1,1.172676E1,3.2835224E1,2.199529E0,7.2474205E1,2.4058687E1,9.558675E0,4.3824226E1,9.405501E0,2.4598671E1,4.063322E1,3.680436E0,8.046324E0,6.793306E0,2.604192E1,5.8391594E1,1.4082614E1,8.367426E0,1.5691261E1,2.356456E0,7.202219E0,2.7118547E0,4.111237E1,7.7482038E0,3.2885017E1,1.2203383E0,5.5729675E0,1.8874626E1,7.167294E0,5.5776558E1,2.615034E0,1.6953319E0,6.6720943E0,1.7612095E0,1.3930052E1,1.1897033E0,1.1667526E0,1.7334677E0,6.014736E0,1.3036232E1,1.9848785E1,1.4769783E1,4.104843E0,5.6349487E0,1.532345E0,4.507517E1,1.0701391E1,1.4332006E0,1.1818336E0,4.5984535E0,2.0736406E0,3.0388775E0,1.0891174E1,3.76209E0,1.6086695E1,8.296827E0,6.472956E0,3.4636974E0,2.1712513E0,2.7149803E1,1.7925365E1,2.347647E0,8.3537445E0,2.533041E0,2.0654125E0,1.3439661E0,9.547209E0],"tree_param":{"num_deleted":"0","num_feature":"4","num_nodes":"75","size_leaf_vector":"0"}},{"base_weights":[-4.20223E-1,-5.0257784E-1,-3.299772E-1,9.067494E-2,-3.4898582E-1,-4.977134E-1,-3.082768E-1,4.4199613E-1,-3.6520654E-1,2.5852863E-2,8.472469E-1,-5.14477E-1,-2.793781E-1,1.5893622E-1,-7.557065E-2,-2.2227703E-1,-5.098429E-1,-2.586067E-1,5.561912E-1],"categories":[],"categories_nodes":[],"categories_segments":[],"categories_sizes":[],"default_left":[1,0,1,0,1,0,1,1,1,1,0,0,1,0,0,1,0,0,0],"id":30,"left_children":[1,-1,3,-1,5,-1,7,9,11,13,-1,-1,15,-1,-1,17,-1,-1,-1],"loss_changes":[1.4448051E0,0E0,8.817339E-1,0E0,4.6367073E-1,0E0,3.691564E0,1.0374044E0,8.4746456E-1,6.776377E-2,0E0,0E0,5.619106E-1,0E0,0E0,1.3569698E0,0E0,0E0,0E0],"parents":[2147483647,0,0,2,2,4,4,6,6,7,7,8,8,9,9,12,12,15,15],"right_children":[2,-1,4,-1,6,-1,8,10,12,14,-1,-1,16,-1,-1,18,-1,-1,-1],"split_conditions":[-1.954881E-1,-5.0257783E-2,-1.9525093E-1,9.0674935E-3,-1.9347066E-1,-4.977134E-2,-1.9194528E-1,-1.9273257E-1,-1.8003745E-1,-1.9332305E-1,8.472469E-2,-5.14477E-2,4.724817E-1,1.5893621E-2,-7.557065E-3,1.0614394E-1,-5.098429E-2,-2.5860671E-2,5.561912E-2],"split_indices":[0,0,0,0,0,0,0,0,0,0,0,0,0,0,0,0,0,0,0],"split_type":[0,0,0,0,0,0,0,0,0,0,0,0,0,0,0,0,0,0,0],"sum_hessian":[2.1571242E2,1.1039823E2,1.0531419E2,4.3902235E0,1.00923965E2,1.9275646E1,8.164832E1,5.2813883E0,7.6366936E1,3.1305199E0,2.1508684E0,2.6056293E1,5.031064E1,1.1086909E0,2.021829E0,4.1895008E1,8.415632E0,4.0665047E1,1.2299621E0],"tree_param":{"num_deleted":"0","num_feature":"4","num_nodes":"19","size_leaf_vector":"0"}},{"base_weights":[7.531796E-1,8.291614E-1,-1.5081184E-1,6.904693E-1,1.045252E0,5.76466E-2,-5.192766E-1,9.4689333E-1,6.538354E-1,1.1292143E0,8.219404E-1,-2.1716934E-1,1.8132038E-1,6.349728E-1,8.622517E-1,-2.1891062E-1,8.8804793E-1,7.7955924E-2,-3.0559236E-1,2.9765996E-1,-2.103796E-2,6.5657634E-1,5.810719E-2,1.0451277E0,3.8845056E-1,4.479762E-1,9.24081E-1,-6.032414E-2,-4.2632726E-1,5.5142775E-2,1.137792E0,-3.5150632E-1,1.5634649E-1,6.680683E-1,2.3192495E-1,-3.1351435E-1,4.5300648E-1,-3.741751E-1,7.0043504E-1,9.710259E-1,-1.6248037E-1,1.114507E0,7.6677793E-1,2.5188398E-1,-4.21081E-1,3.4363636E-1,-6.447597E-2,6.016872E-1,7.8107333E-1,3.602911E-1,4.8446245E-2,8.351999E-2,-4.7923544E-1,9.895951E-1,-1.0415328E-1,-1.930988E-2,1.142367E0,-2.9608916E-2,8.7984943E-1,6.1883017E-2,6.2893254E-1,-2.9334E-1,1.9273946E-1],"categories":[],"categories_nodes":[],"categories_segments":[],"categories_sizes":[],"default_left":[1,1,1,1,1,1,0,0,1,0,1,1,1,1,1,0,1,0,1,1,1,1,1,0,1,1,1,0,0,1,0,0,1,1,1,1,1,0,1,0,0,0,1,1,0,0,1,0,0,0,0,0,0,0,0,0,0,0,0,0,0,0,0],"id":31,"left_children":[1,3,5,7,9,11,-1,-1,13,-1,15,17,19,21,23,-1,25,-1,27,29,31,33,35,-1,37,39,41,-1,-1,43,-1,-1,45,47,49,51,53,-1,55,-1,-1,-1,57,59,-1,-1,61,-1,-1,-1,-1,-1,-1,-1,-1,-1,-1,-1,-1,-1,-1,-1,-1],"loss_changes":[2.6450607E1,9.878891E0,2.3774433E0,1.4323196E0,1.6279144E0,7.3338985E-1,0E0,0E0,2.1639252E-1,0E0,3.0104237E0,2.0107573E-1,3.5062093E-1,2.2297516E0,7.492771E-1,0E0,1.9937706E-1,0E0,1.3506925E-1,1.8430289E0,4.2271566E-1,7.006073E-1,1.2670667E0,0E0,1.5241919E0,1.7122147E0,1.881733E-1,0E0,0E0,8.8458747E-1,0E0,0E0,2.1961868E-1,8.065033E-1,1.2741962E-1,3.387775E-1,1.3365177E0,0E0,1.3302317E0,0E0,0E0,0E0,2.0313091E0,4.2715278E-1,0E0,0E0,2.3508939E-1,0E0,0E0,0E0,0E0,0E0,0E0,0E0,0E0,0E0,0E0,0E0,0E0,0E0,0E0,0E0,0E0],"parents":[2147483647,0,0,1,1,2,2,3,3,4,4,5,5,8,8,10,10,11,11,12,12,13,13,14,14,16,16,18,18,19,19,20,20,21,21,22,22,24,24,25,25,26,26,29,29,32,32,33,33,34,34,35,35,36,36,38,38,42,42,43,43,46,46],"right_children":[2,4,6,8,10,12,-1,-1,14,-1,16,18,20,22,24,-1,26,-1,28,30,32,34,36,-1,38,40,42,-1,-1,44,-1,-1,46,48,50,52,54,-1,56,-1,-1,-1,58,60,-1,-1,62,-1,-1,-1,-1,-1,-1,-1,-1,-1,-1,-1,-1,-1,-1,-1,-1],"split_conditions":[-1.4997266E-1,1.5E0,4.0503293E-2,-2.0031027E-1,-1.9430715E-1,-1.2074437E-1,-5.1927663E-2,9.468933E-2,-1.7152484E-1,1.1292143E-1,-1.9366747E-1,5E-1,-7.3113084E-2,-1.7826605E-1,-1.5833767E-1,-2.1891063E-2,-1.9194528E-1,7.7955923E-3,-1.3742515E-1,-8.120253E-2,-5.3824376E-2,5E-1,-1.7413275E-1,1.0451277E-1,-1.5725514E-1,-1.9273257E-1,-1.8672946E-1,-6.0324143E-3,-4.2632725E-2,-9.5255725E-2,1.137792E-1,-3.5150632E-2,-2.0905644E-2,-1.9661984E-1,-1.9105957E-1,-1.7742954E-1,-1.728534E-1,-3.7417512E-2,5E-1,9.710259E-2,-1.6248038E-2,1.11450695E-1,-1.829898E-1,-1.0303026E-1,-4.21081E-2,3.436364E-2,1.7917793E-2,6.016872E-2,7.8107335E-2,3.602911E-2,4.8446245E-3,8.351999E-3,-4.7923546E-2,9.895951E-2,-1.0415329E-2,-1.930988E-3,1.14236705E-1,-2.9608917E-3,8.798494E-2,6.188302E-3,6.289326E-2,-2.9334E-2,1.9273946E-2],"split_indices":[0,1,0,0,0,0,0,0,0,0,0,1,0,0,0,0,0,0,0,0,0,1,0,0,0,0,0,0,0,0,0,0,0,0,0,0,0,0,1,0,0,0,0,0,0,0,0,0,0,0,0,0,0,0,0,0,0,0,0,0,0,0,0],"split_type":[0,0,0,0,0,0,0,0,0,0,0,0,0,0,0,0,0,0,0,0,0,0,0,0,0,0,0,0,0,0,0,0,0,0,0,0,0,0,0,0,0,0,0,0,0,0,0,0,0,0,0,0,0,0,0,0,0,0,0,0,0,0,0],"sum_hessian":[3.822692E2,3.5270648E2,2.9562702E1,2.1738127E2,1.3532523E2,1.9419626E1,1.0143076E1,2.4067793E1,1.9331348E2,9.539952E1,3.99257E1,5.792378E0,1.3627248E1,1.8098055E2,1.2332929E1,2.2463236E0,3.767938E1,1.3626617E0,4.4297166E0,8.353634E0,5.2736135E0,1.7431432E2,6.6662292E0,8.028341E0,4.3045874E0,3.868294E0,3.3811085E1,1.9559407E0,2.4737756E0,7.309321E0,1.0443132E0,1.4991254E0,3.774488E0,1.6916318E2,5.151136E0,3.5405092E0,3.1257198E0,1.1918498E0,3.1127377E0,1.765192E0,2.103102E0,1.2542482E1,2.12686E1,5.505802E0,1.8035185E0,1.7413777E0,2.0331101E0,1.10549126E2,5.8614056E1,2.4637618E0,2.6873744E0,1.1886836E0,2.3518257E0,1.196884E0,1.9288359E0,1.5479693E0,1.5647682E0,2.7360635E0,1.8532537E1,4.4350386E0,1.070764E0,1.0015291E0,1.0315812E0],"tree_param":{"num_deleted":"0","num_feature":"4","num_nodes":"63","size_leaf_vector":"0"}},{"base_weights":[-1.2394163E-1,-3.2955426E-1,1.889687E-1,-4.1791603E-1,-2.179973E-1,3.8809088E-1,-7.0274115E-2,-3.4153706E-1,-5.486723E-1,6.5425897E-1,-2.7387565E-1,2.417734E-1,7.9466474E-1,3.0110784E-2,-5.0001925E-1,-2.7406487E-1,-5.2904695E-1,-6.919949E-2,-4.219899E-1,4.650991E-1,1.5054213E-1,9.20901E-1,3.344783E-1,-8.062234E-2,5.61097E-1,-3.4978288E-1,4.4350397E-2,-3.9298728E-1,2.4693233E-1,-2.367025E-1,-4.5509943E-1,2.9563504E-1,1.092375E0,-1.1414391E-1,3.8520804E-1,4.700329E-1,1.0456681E0,-3.556918E-2,5.428708E-1,-2.9262695E-1,6.301066E-2,-1.0848418E-1,-3.6371648E-1,1.27129E-1,-1.21917024E-1,7.3747903E-1,1.2755375E-1,-1.0470263E-1,-3.8943318E-1,-5.0239724E-1,-2.9041168E-1,2.0176986E-1,5.630883E-1,8.341602E-2,-2.9494864E-1,7.690899E-1,1.0301638E-1,1.3716666E-1,-3.5115382E-1,6.3460547E-1,-1.0763095E-1,-3.1945577E-1,1.547389E-1,-4.4706658E-1,-2.9349625E-1,-2.5387645E-2,4.3089062E-1,6.1683834E-1,-5.026182E-1,-4.2419684E-1,3.6119986E-1,-4.4860026E-1,-1.2857017E-1,5.059961E-1,1.147051E0,-3.585917E-1,2.1361585E-1,-4.712676E-1,-2.0699905E-1,-4.6919528E-1,7.348566E-2],"categories":[],"categories_nodes":[],"categories_segments":[],"categories_sizes":[],"default_left":[1,1,1,1,1,1,1,1,0,0,1,1,1,1,0,1,0,1,1,1,1,1,1,1,0,1,1,0,1,1,1,1,0,1,1,0,0,0,0,1,1,1,1,0,0,0,1,0,0,0,1,0,0,1,1,1,1,0,1,0,1,0,0,0,0,0,0,0,0,0,0,0,0,0,0,0,0,0,0,0,0],"id":32,"left_children":[1,3,5,7,9,11,13,15,-1,-1,17,19,21,23,-1,25,-1,27,29,31,33,35,37,39,-1,41,43,-1,45,47,49,51,-1,53,55,-1,-1,-1,-1,57,59,61,63,-1,-1,-1,65,-1,-1,-1,67,-1,-1,69,71,73,75,-1,77,-1,79,-1,-1,-1,-1,-1,-1,-1,-1,-1,-1,-1,-1,-1,-1,-1,-1,-1,-1,-1,-1],"loss_changes":[1.5524736E1,1.3421125E0,4.979537E0,6.11989E-1,3.4132724E0,3.0448046E0,1.8494797E0,5.2777576E-1,0E0,0E0,1.8826017E0,7.744968E-1,5.0308895E-1,2.127489E0,0E0,1.0083473E0,0E0,2.9295938E0,1.1552811E-1,9.041054E-1,1.9636761E0,9.2775345E-2,3.7218797E-1,9.373624E-1,0E0,7.2775364E-2,1.3659808E-1,0E0,7.618521E-1,1.1246067E-1,8.6144924E-2,1.4895552E-1,0E0,5.709652E-1,1.7202127E0,0E0,0E0,0E0,0E0,3.592019E-1,1.9032106E0,2.2976755E-1,5.100918E-2,0E0,0E0,0E0,6.123908E-1,0E0,0E0,0E0,2.0459697E0,0E0,0E0,1.2937877E0,1.5213054E-1,1.0401964E-1,6.2431294E-1,0E0,9.575093E-2,0E0,1.0391726E0,0E0,0E0,0E0,0E0,0E0,0E0,0E0,0E0,0E0,0E0,0E0,0E0,0E0,0E0,0E0,0E0,0E0,0E0,0E0,0E0],"parents":[2147483647,0,0,1,1,2,2,3,3,4,4,5,5,6,6,7,7,10,10,11,11,12,12,13,13,15,15,17,17,18,18,19,19,20,20,21,21,22,22,23,23,25,25,26,26,28,28,29,29,30,30,31,31,33,33,34,34,39,39,40,40,41,41,42,42,46,46,50,50,53,53,54,54,55,55,56,56,58,58,60,60],"right_children":[2,4,6,8,10,12,14,16,-1,-1,18,20,22,24,-1,26,-1,28,30,32,34,36,38,40,-1,42,44,-1,46,48,50,52,-1,54,56,-1,-1,-1,-1,58,60,62,64,-1,-1,-1,66,-1,-1,-1,68,-1,-1,70,72,74,76,-1,78,-1,80,-1,-1,-1,-1,-1,-1,-1,-1,-1,-1,-1,-1,-1,-1,-1,-1,-1,-1,-1,-1],"split_conditions":[-1.9233893E-1,-1.980468E-1,1.5E0,-1.9903092E-1,-1.9784999E-1,-1.4711872E-1,2.9721403E0,5E-1,-5.4867234E-2,6.5425895E-2,-1.9612777E-1,-1.8992785E-1,-5.771164E-2,-6.5375282E-3,-5.0001927E-2,-1.9932616E-1,-5.2904695E-2,-1.9716111E-1,-1.9563572E-1,5E-1,-1.8018508E-1,5E-1,-6.586734E-3,-1.7836446E-1,5.6109704E-2,-2.0070392E-1,-1.9912934E-1,-3.9298728E-2,-1.9676745E-1,1E0,-1.9440557E-1,-1.9091195E-1,1.0923751E-1,-1.8535168E-1,-1.7152484E-1,4.700329E-2,1.0456681E-1,-3.5569181E-3,5.4287083E-2,-1.9184686E-1,-1.735915E-1,-2.0099916E-1,-2.003595E-1,1.27129005E-2,-1.2191703E-2,7.37479E-2,1E0,-1.0470263E-2,-3.8943317E-2,-5.0239723E-2,-1.9401193E-1,2.0176986E-2,5.6308832E-2,-1.8835324E-1,-1.829898E-1,-1.728534E-1,-1.7054072E-1,1.3716667E-2,-1.8810722E-1,6.346055E-2,-1.5833767E-1,-3.194558E-2,1.547389E-2,-4.4706658E-2,-2.9349625E-2,-2.5387646E-3,4.3089062E-2,6.1683834E-2,-5.026182E-2,-4.2419683E-2,3.6119986E-2,-4.4860028E-2,-1.2857017E-2,5.0599612E-2,1.147051E-1,-3.585917E-2,2.1361586E-2,-4.7126763E-2,-2.0699905E-2,-4.691953E-2,7.348566E-3],"split_indices":[0,0,1,0,0,0,0,1,0,0,0,0,0,0,0,0,0,0,0,1,0,1,0,0,0,0,0,0,0,1,0,0,0,0,0,0,0,0,0,0,0,0,0,0,0,0,1,0,0,0,0,0,0,0,0,0,0,0,0,0,0,0,0,0,0,0,0,0,0,0,0,0,0,0,0,0,0,0,0,0,0],"split_type":[0,0,0,0,0,0,0,0,0,0,0,0,0,0,0,0,0,0,0,0,0,0,0,0,0,0,0,0,0,0,0,0,0,0,0,0,0,0,0,0,0,0,0,0,0,0,0,0,0,0,0,0,0,0,0,0,0,0,0,0,0,0,0,0,0,0,0,0,0,0,0,0,0,0,0,0,0,0,0,0,0],"sum_hessian":[2.3933049E2,1.4439542E2,9.4935074E1,7.9041885E1,6.535353E1,5.341243E1,4.1522644E1,5.2176132E1,2.6865755E1,3.2898965E0,6.206363E1,4.044998E1,1.2962448E1,3.44138E1,7.1088448E0,4.017975E1,1.1996386E1,2.6672556E1,3.5391075E1,1.0543195E1,2.9906788E1,9.386452E0,3.5759964E0,2.9177269E1,5.2365313E0,3.2381123E1,7.798627E0,1.3056621E1,1.3615935E1,6.600799E0,2.8790276E1,9.45905E0,1.0841448E0,1.429578E1,1.5611007E1,3.067776E0,6.3186755E0,1.5870864E0,1.98891E0,1.1365009E1,1.781226E1,2.2473776E0,3.0133743E1,5.3636513E0,2.4349756E0,1.6515964E0,1.1964338E1,4.444826E0,2.155973E0,2.077357E1,8.016706E0,8.30037E0,1.1586802E0,7.0887527E0,7.207028E0,5.882831E0,9.728175E0,1.2010934E0,1.0163916E1,3.4699845E0,1.4342275E1,1.1289223E0,1.1184553E0,1.1324794E1,1.880895E1,8.563139E0,3.4011993E0,1.1582096E0,6.858497E0,2.3207736E0,4.767979E0,2.864957E0,4.3420706E0,4.8473835E0,1.0354478E0,1.4469205E0,8.281255E0,4.3064675E0,5.857448E0,4.2558074E0,1.0086468E1],"tree_param":{"num_deleted":"0","num_feature":"4","num_nodes":"81","size_leaf_vector":"0"}},{"base_weights":[-4.381225E-1,-5.662888E-1,1.1772256E0],"categories":[],"categories_nodes":[],"categories_segments":[],"categories_sizes":[],"default_left":[1,0,0],"id":33,"left_children":[1,-1,-1],"loss_changes":[4.4403294E1,0E0,0E0],"parents":[2147483647,0,0],"right_children":[2,-1,-1],"split_conditions":[4.269158E0,-5.6628883E-2,1.1772256E-1],"split_indices":[0,0,0],"split_type":[0,0,0],"sum_hessian":[2.102542E2,1.9540002E2,1.4854164E1],"tree_param":{"num_deleted":"0","num_feature":"4","num_nodes":"3","size_leaf_vector":"0"}},{"base_weights":[-5.4747266E-1,-5.563795E-1,-2.741134E-1,6.327923E-1,-4.9128562E-1],"categories":[],"categories_nodes":[],"categories_segments":[],"categories_sizes":[],"default_left":[1,0,1,0,0],"id":34,"left_children":[1,-1,3,-1,-1],"loss_changes":[3.454857E-1,0E0,1.9702594E0,0E0,0E0],"parents":[2147483647,0,0,2,2],"right_children":[2,-1,4,-1,-1],"split_conditions":[1.2007287E0,-5.5637952E-2,4.3649616E0,6.3279234E-2,-4.9128562E-2],"split_indices":[0,0,0,0,0],"split_type":[0,0,0,0,0],"sum_hessian":[2.035349E2,1.9610973E2,7.425173E0,1.0648026E0,6.36037E0],"tree_param":{"num_deleted":"0","num_feature":"4","num_nodes":"5","size_leaf_vector":"0"}},{"base_weights":[1.224556E-1,2.9369494E-1,-1.4626859E-1,3.6753863E-1,-1.3568804E-1,-3.2326198E-1,2.30914E-1,7.63814E-2,4.0684196E-1,-2.1534732E-1,4.0790686E-1,5.398608E-1,-3.6735305E-1,3.7643415E-1,-4.785019E-1,-3.630845E-1,1.4320236E-1,5.317939E-1,2.7555346E-1,-8.126858E-2,-4.1797274E-1,9.4419265E-1,-3.2451034E-1,-2.3561714E-2,1.0026563E0,-4.2388606E-1,-2.6197964E-1,-1.68885E-1,6.546556E-1,3.163993E-1,7.859408E-1,-2.869113E-1,3.600334E-1,-3.2122636E-1,3.1177256E-1,-5.0424504E-1,-1.0605345E-1,-3.500184E-1,-5.3380895E-1,3.8838968E-1,-3.491025E-1,1.2223831E-1,-2.7717674E-1,5.0737254E-2,7.0013255E-1,4.7668535E-1,-1.9777764E-1,2.4896264E-1,-4.8689097E-1,7.031231E-1,2.348096E-1,-1.4177941E-1,-4.6917322E-1,6.2908304E-1,2.0148622E-2,-4.500334E-1,-1.03273906E-1,4.8924014E-1,1.1131521E-1,-4.8704922E-1,-2.8165838E-1,-4.4942135E-1,-6.6037975E-2,7.0482194E-1,3.8851258E-1,-1.4650786E-1,-3.042719E-1,-4.507105E-1,3.0736142E-1,-4.4649872E-1,4.116963E-1,-3.071982E-1,2.2883883E-1,-5.20694E-1,-3.267634E-1,3.031068E-1,-2.4280858E-1,1.6844632E-1,-3.5948136E-1,1.9331698E-1,-3.6320737E-1],"categories":[],"categories_nodes":[],"categories_segments":[],"categories_sizes":[],"default_left":[1,1,1,1,1,1,1,1,1,1,1,1,1,1,0,0,0,1,1,1,1,0,0,0,0,1,1,1,1,1,0,1,1,1,1,0,0,1,0,1,1,0,1,0,0,1,1,0,0,0,1,1,0,0,1,1,1,0,0,0,1,0,1,0,0,0,0,0,0,0,0,0,0,0,0,0,0,0,0,0,0],"id":35,"left_children":[1,3,5,7,9,11,13,15,17,19,21,23,25,27,-1,-1,-1,29,31,33,35,-1,-1,-1,-1,37,39,41,43,45,-1,47,49,51,53,-1,-1,55,-1,57,59,-1,61,-1,-1,63,65,-1,-1,-1,67,69,-1,-1,71,73,75,-1,-1,-1,77,-1,79,-1,-1,-1,-1,-1,-1,-1,-1,-1,-1,-1,-1,-1,-1,-1,-1,-1,-1],"loss_changes":[1.2508726E1,5.306757E0,7.158102E0,1.590868E0,1.172962E0,2.962473E0,3.7387471E0,5.8317167E-1,1.8982658E0,5.775988E-1,1.7001488E0,1.0496645E0,3.0415154E-1,4.535245E0,0E0,0E0,0E0,3.1885357E0,3.0901055E0,1.4948664E0,1.812489E-1,0E0,0E0,0E0,0E0,1.6834736E-1,1.6629083E0,3.6955512E-1,5.0047493E-1,3.0331779E0,0E0,1.0604722E0,2.2018614E0,1.9033247E-1,5.5302703E-1,0E0,0E0,6.708472E-1,0E0,4.77463E-2,8.887267E-2,0E0,2.6368624E-1,0E0,0E0,2.7890635E-1,5.550921E-3,0E0,0E0,0E0,2.2206154E0,1.1628643E0,0E0,0E0,3.5849616E-1,7.4214935E-3,6.225843E-1,0E0,0E0,0E0,7.152394E-1,0E0,4.3988466E-1,0E0,0E0,0E0,0E0,0E0,0E0,0E0,0E0,0E0,0E0,0E0,0E0,0E0,0E0,0E0,0E0,0E0,0E0],"parents":[2147483647,0,0,1,1,2,2,3,3,4,4,5,5,6,6,7,7,8,8,9,9,10,10,11,11,12,12,13,13,17,17,18,18,19,19,20,20,25,25,26,26,27,27,28,28,29,29,31,31,32,32,33,33,34,34,37,37,39,39,40,40,42,42,45,45,46,46,50,50,51,51,54,54,55,55,56,56,60,60,62,62],"right_children":[2,4,6,8,10,12,14,16,18,20,22,24,26,28,-1,-1,-1,30,32,34,36,-1,-1,-1,-1,38,40,42,44,46,-1,48,50,52,54,-1,-1,56,-1,58,60,-1,62,-1,-1,64,66,-1,-1,-1,68,70,-1,-1,72,74,76,-1,-1,-1,78,-1,80,-1,-1,-1,-1,-1,-1,-1,-1,-1,-1,-1,-1,-1,-1,-1,-1,-1,-1],"split_conditions":[5E-1,-1.9155163E-1,-1.5833767E-1,-2.0021187E-1,-1.4062354E-1,-2.0036933E-1,5E-1,-2.0070392E-1,-1.9863728E-1,-1.7885652E-1,-1.1454443E-1,-2.0056614E-1,-1.9396272E-1,1.5E0,-4.7850188E-2,-3.630845E-2,1.4320237E-2,-1.9873568E-1,-1.9780079E-1,-1.846628E-1,-1.5833767E-1,9.441926E-2,-3.2451034E-2,-2.3561714E-3,1.0026564E-1,-1.9563572E-1,-1.9204369E-1,-1.4923458E-1,-1.4561795E-1,-1.996214E-1,7.859408E-2,-1.9824363E-1,-1.9745633E-1,-1.8751675E-1,-1.8318662E-1,-5.0424505E-2,-1.06053455E-2,-1.9775157E-1,-5.3380895E-2,-1.9366747E-1,-1.8820563E-1,1.2223831E-2,-8.377108E-2,5.0737257E-3,7.0013255E-2,-2.0001504E-1,-1.9903092E-1,2.4896264E-2,-4.8689097E-2,7.0312314E-2,-1.9681665E-1,-1.8909134E-1,-4.6917323E-2,6.290831E-2,-1.8215331E-1,-1.9878489E-1,-1.9760396E-1,4.8924014E-2,1.1131521E-2,-4.8704922E-2,-1.8613899E-1,-4.4942137E-2,-1.0720028E-2,7.0482194E-2,3.8851257E-2,-1.4650786E-2,-3.0427191E-2,-4.507105E-2,3.0736143E-2,-4.4649873E-2,4.1169632E-2,-3.071982E-2,2.2883883E-2,-5.2069403E-2,-3.267634E-2,3.0310681E-2,-2.428086E-2,1.6844632E-2,-3.594814E-2,1.93317E-2,-3.632074E-2],"split_indices":[1,0,0,0,0,0,2,0,0,0,0,0,0,1,0,0,0,0,0,0,0,0,0,0,0,0,0,0,0,0,0,0,0,0,0,0,0,0,0,0,0,0,0,0,0,0,0,0,0,0,0,0,0,0,0,0,0,0,0,0,0,0,0,0,0,0,0,0,0,0,0,0,0,0,0,0,0,0,0,0,0],"split_type":[0,0,0,0,0,0,0,0,0,0,0,0,0,0,0,0,0,0,0,0,0,0,0,0,0,0,0,0,0,0,0,0,0,0,0,0,0,0,0,0,0,0,0,0,0,0,0,0,0,0,0,0,0,0,0,0,0,0,0,0,0,0,0,0,0,0,0,0,0,0,0,0,0,0,0,0,0,0,0,0,0],"sum_hessian":[2.698998E2,1.6479465E2,1.0510516E2,1.407355E2,2.4059134E1,7.163385E1,3.3471313E1,1.7088455E1,1.2364706E2,2.1510757E1,2.5483758E0,2.934966E0,6.869888E1,2.8163584E1,5.3077292E0,1.6702063E0,1.5418248E1,6.178936E1,6.1857697E1,1.3788128E1,7.722629E0,1.3042445E0,1.2441313E0,1.7515997E0,1.1833665E0,4.2743965E1,2.5954914E1,9.6474285E0,1.8516155E1,3.4659603E1,2.7129757E1,7.7646546E0,5.409304E1,8.674764E0,5.113364E0,5.5664444E0,2.1561847E0,2.8067177E1,1.4676788E1,2.6576552E0,2.3297258E1,2.58075E0,7.066679E0,1.4448401E0,1.7071316E1,2.6478342E1,8.181264E0,2.0435996E0,5.721055E0,1.3230103E1,4.0862938E1,4.8050094E0,3.8697546E0,1.8946543E0,3.21871E0,1.9385578E1,8.681599E0,1.3870552E0,1.2706002E0,5.607154E0,1.7690105E1,3.2702703E0,3.7964087E0,5.4314547E0,2.1046886E1,7.12621E0,1.0550535E0,3.4119747E0,3.7450962E1,3.2235482E0,1.5814613E0,1.0693389E0,2.149371E0,1.0272934E1,9.112644E0,1.919367E0,6.7622323E0,2.436078E0,1.5254027E1,2.2137914E0,1.5826172E0],"tree_param":{"num_deleted":"0","num_feature":"4","num_nodes":"81","size_leaf_vector":"0"}},{"base_weights":[-4.1065687E-1,-4.938127E-1,-3.236552E-1,9.6373215E-2,-3.4279755E-1,-5.230851E-1,-3.1305993E-1,-4.9139563E-2,-3.6519548E-1,-1.5199663E-1,3.044247E-1,-4.963429E-1,-3.0305392E-1,-2.6768649E-2,-3.0268833E-1,6.6405666E-1,-5.527615E-2,-2.8623027E-1,-5.3471965E-1,-2.3787856E-1,-5.2126926E-1,1.8543784E-1,-1.4607927E-1,-4.06674E-1,-9.5941156E-2,-3.8131103E-1,-1.686206E-1],"categories":[],"categories_nodes":[],"categories_segments":[],"categories_sizes":[],"default_left":[1,0,1,0,1,0,1,1,1,1,1,1,1,1,1,0,0,0,0,1,0,0,0,0,0,0,0],"id":36,"left_children":[1,-1,3,-1,5,-1,7,9,11,13,15,17,19,21,23,-1,-1,-1,-1,25,-1,-1,-1,-1,-1,-1,-1],"loss_changes":[1.349102E0,0E0,8.758993E-1,0E0,3.749447E-1,0E0,1.203126E0,6.20654E-1,4.522419E-1,2.3536685E-1,5.402189E-1,2.6006222E-2,6.261177E-1,2.3326476E-1,8.478582E-2,0E0,0E0,0E0,0E0,3.5741353E-1,0E0,0E0,0E0,0E0,0E0,0E0,0E0],"parents":[2147483647,0,0,2,2,4,4,6,6,7,7,8,8,9,9,10,10,11,11,12,12,13,13,14,14,19,19],"right_children":[2,-1,4,-1,6,-1,8,10,12,14,16,18,20,22,24,-1,-1,-1,-1,26,-1,-1,-1,-1,-1,-1,-1],